%YAML:1.0
opencv_ml_em:
   format: 3
   training_params:
      nclusters: 3
      cov_mat_type: diagonal
      epsilon: 9.9999999999999995e-08
      iterations: 100
   weights: !!opencv-matrix
      rows: 1
      cols: 3
      dt: d
      data: [ 4.2066481854471688e-01, 8.4130019120458893e-02,
          4.9520516233482414e-01 ]
   means: !!opencv-matrix
      rows: 3
      cols: 500
      dt: d
      data: [ 3.5974144625554459e-03, 1.0425629552437247e-03,
          2.3875329539817650e-03, 1.0457848570725715e-03,
          4.5840568334039036e-03, 6.5432711733609073e-04,
          3.8129443465438218e-03, 2.7535249164723267e-03,
          1.2909655136415696e-03, 2.0409641398209423e-03,
          2.2575793995714155e-03, 3.1281856007834797e-03,
          5.6094612543479572e-03, 5.1318643280730434e-03,
          2.0027244965970478e-03, 2.0017217371815247e-03,
          2.3004937733537381e-03, 2.0759603295349544e-03,
          4.7114846394030437e-03, 9.9565875527648172e-04,
          2.6916327675133782e-03, 3.7864856903750467e-03,
          1.9906614307776825e-03, 1.3062271219538152e-03,
          3.8762166074216217e-03, 6.4611514856173394e-04, 0.,
          5.1438408054608744e-03, 1.5457736338392147e-03,
          3.4054800265622219e-05, 7.3560431113782920e-04,
          1.9381830409514382e-03, 5.0246170444181928e-04,
          1.6108328369996525e-03, 2.0752824633931020e-03,
          2.7461859818818189e-03, 2.1567239812498827e-03,
          4.7951813303836743e-03, 1.4670072818219267e-03,
          1.7404241749367734e-03, 1.5810970359633270e-03,
          3.3075158729166700e-03, 9.2351349097766103e-04,
          2.3594190309678873e-03, 0., 4.8312558392862564e-03,
          5.8203065707226739e-03, 4.6762101844758568e-04,
          1.2479960297173502e-03, 2.9540006467584849e-03,
          1.4489983482880171e-03, 3.3524382406968237e-03,
          3.3469236234484299e-03, 0., 1.4308455604319862e-03,
          6.5023750533538976e-04, 1.4900722726333272e-03,
          1.1234835606287795e-03, 1.8251311968026927e-03,
          5.1504000179269699e-04, 2.0953536361867950e-03,
          1.7221568955579128e-03, 1.1629796221173554e-03,
          1.8723901341811977e-03, 2.1990625930690239e-03,
          1.0264572029914652e-03, 1.5952910997983857e-03,
          2.2720063074953053e-03, 2.0889155622254912e-03,
          1.9123379966578360e-03, 1.9846961309744299e-03,
          1.8714416322319725e-03, 1.2896178823616029e-03,
          2.3877222753887276e-03, 1.6271812207352518e-03,
          4.4640915927153732e-03, 3.7916339050715962e-03,
          2.9790539409139203e-03, 4.8703827838161486e-03,
          4.0111707729401170e-03, 5.3337242466995937e-03,
          1.0448227474508520e-03, 0., 1.9217449858654357e-03,
          1.1686373554480958e-03, 1.2122152844052140e-03,
          4.3073362157149353e-04, 1.0176518798440087e-03,
          1.4799505700574756e-04, 1.2629481120526344e-03,
          1.2923023580287609e-03, 3.8477355517976294e-03,
          1.5283121960372472e-03, 9.8257013206215537e-04,
          3.7594725060597621e-03, 4.6063732812459818e-03,
          1.9112629412119542e-03, 8.6129956249255801e-04,
          5.6822484641678621e-03, 0., 5.1080281112655225e-03,
          5.3033832315064480e-04, 1.2232950736022573e-04,
          1.8809978325470492e-03, 8.1492885328054445e-04,
          2.5614247989331237e-03, 2.9542713240081979e-03, 0.,
          4.9277205502649586e-03, 5.2365672015318217e-03,
          4.4374864139808573e-04, 2.2043420508408638e-03,
          2.3889086106501133e-03, 2.8130380014797638e-05,
          2.5511177742754861e-03, 2.2127286566063905e-03,
          3.1729660058173515e-03, 1.3359407138955443e-03,
          3.1731800242505688e-03, 3.8592888495943647e-05,
          1.8439581608678851e-03, 1.5135266263117345e-03,
          3.4946290985643719e-03, 1.7315926063330815e-03,
          1.9717619221966375e-03, 2.5675205698777056e-03,
          1.2846638151753956e-03, 3.4979941402583209e-04,
          1.0510701564152578e-03, 1.6163995483660756e-04,
          5.4037018626811664e-03, 6.4773743637094969e-04,
          1.1212016271728868e-03, 3.6128431853777341e-03,
          3.8566801710899429e-03, 1.3737312404950830e-03,
          1.9655289288491593e-03, 1.3904349100283527e-03,
          1.5023934225758305e-03, 4.1081698901774172e-04,
          6.6166764539053770e-03, 3.8976448685049672e-03,
          2.7711299204425830e-03, 4.0845468337780003e-03,
          8.1467726325275920e-04, 1.5183676887118593e-03,
          1.1996663482186766e-03, 1.1453095252788206e-03,
          4.5827250853775810e-03, 3.0147294874358784e-03,
          5.0579328555093554e-03, 2.0548161116184242e-03,
          3.2931146689927399e-03, 1.4763250340683858e-03,
          6.8236557912028384e-04, 3.1786746938925229e-04,
          5.1064018562196169e-03, 8.3466185697220533e-04,
          1.9537688598730792e-03, 2.1924433364244153e-03,
          1.6185473634307377e-03, 1.1411167263421225e-03,
          4.8647063541703891e-03, 5.0689092935594460e-04,
          9.1171713163785105e-05, 1.0554466226699178e-03,
          3.0221315232497213e-03, 0., 2.5043887097904952e-03,
          3.0510375972017225e-03, 1.3249065622146449e-03,
          1.2428579075199212e-03, 1.8722622659576554e-03,
          1.6151945526101698e-03, 2.3951386933510699e-03,
          5.1677842072919084e-03, 2.8497149523932330e-05,
          2.9294200781144453e-03, 4.9486309628552145e-04,
          1.0762152100880578e-03, 5.9117162218160031e-03,
          4.6765754005979390e-03, 2.0072433836622028e-03,
          9.7403229564454140e-04, 1.3120086548431692e-03,
          1.1318873946708217e-03, 3.2136981812143253e-03,
          1.3357180241842647e-03, 1.2923030033251564e-03,
          3.1401166009478341e-03, 4.6043675025150797e-03,
          4.4469935930172873e-04, 1.1852646301167076e-03,
          2.5152296292655610e-03, 3.3473195578062843e-03,
          3.4965121426461078e-03, 8.0595106994121293e-04,
          2.1356061970655938e-03, 1.1063242504761534e-03,
          7.3503599000869523e-04, 7.8292481602364010e-04,
          2.5177051468255312e-03, 2.0775567210907209e-03,
          1.9361211232756412e-04, 2.8872531533725514e-03,
          9.1785144979122902e-04, 2.0933348637612588e-03,
          2.5058164287944580e-03, 1.2076680327546714e-03,
          4.4956387859047793e-03, 1.3920346430750232e-03,
          4.8423729441403344e-05, 0., 1.3180480924621556e-03,
          2.5753100585510069e-03, 2.2064919867104639e-03,
          4.1811994308954634e-03, 2.4471931937452818e-03,
          2.5398600375816467e-03, 4.7166273763066284e-03,
          1.0523090282651482e-03, 3.0188592537123179e-04,
          3.8429947676095920e-03, 1.1546863284359905e-03,
          1.7788536186732207e-03, 1.2959792137125373e-03,
          1.0582911448757323e-03, 1.7557278405136172e-03,
          3.2448810772277093e-03, 2.7418208070407349e-03,
          9.7221727958398351e-04, 3.5367582826648174e-03,
          2.5969423619999071e-03, 5.1225661768733105e-03,
          4.4674958676160685e-03, 3.0557228501073329e-03,
          1.9376333805112755e-03, 4.0031930576669040e-04,
          1.0632855120248316e-03, 1.6726117481541019e-03,
          1.9883932684138243e-03, 2.1726378076831359e-03,
          1.7786202176160244e-03, 6.3302047671972108e-04,
          2.3706093698666083e-03, 3.5350188974267137e-03,
          3.1828726429732048e-03, 1.2217636438837417e-03,
          2.1070188764963122e-03, 6.5499502318087314e-04,
          1.1694906216842473e-03, 2.5305298609867169e-03,
          3.9883118642990538e-03, 2.9677667974129713e-03,
          2.8911400250995782e-03, 1.4682946179513138e-03,
          1.3550193399953208e-03, 4.9842437430519682e-03,
          4.1426685106336393e-04, 2.6890964544220592e-03,
          2.3696863310350290e-03, 2.5466399923560258e-03,
          5.7129747805978134e-04, 6.6323748963465217e-04,
          2.9730055825727981e-03, 8.5606625202153314e-04,
          4.5892017643597528e-03, 7.2704705121963171e-04,
          2.0252479977532018e-04, 1.6903006500783328e-03,
          9.5079520685845272e-04, 1.4739212051251716e-03,
          1.1003907772482223e-03, 4.6989591107156640e-03,
          7.2726512933735641e-05, 8.1734093537717245e-05,
          2.5414330818952185e-03, 1.3834024382536607e-03,
          3.2593566765957050e-04, 8.8278753147660405e-04, 0.,
          1.4448393417809135e-03, 1.7674729035206461e-03,
          3.9148881323681009e-04, 1.9286042586647125e-03,
          1.9830797614563585e-03, 0., 2.9046653377350360e-03,
          1.3002832682763505e-03, 3.4017448211789247e-03,
          1.5890625477708601e-04, 7.6313171392782117e-04,
          2.2217997915601798e-03, 4.7410463856661011e-03,
          3.9439667439306178e-03, 6.5477800011672299e-04,
          1.2503357915329266e-03, 3.1355619116315066e-03,
          4.6196386527907586e-03, 1.1837462163521496e-03,
          3.2063303679553353e-03, 2.4645409159988374e-03,
          5.4689222474917538e-03, 3.3142892230121504e-04,
          1.5201684018805799e-03, 2.0196639708718470e-03,
          1.7121297313809714e-03, 2.0140135565802231e-03,
          2.3190324111566443e-03, 3.2854084793705004e-03,
          2.3952688857939754e-03, 1.9659974213745920e-03,
          2.1225986346028983e-03, 3.4930224829087513e-03,
          3.9941631072919559e-03, 1.7575902941054597e-03,
          2.6079222196389408e-04, 2.3338620245015023e-03,
          7.3659971477421475e-04, 1.9333249400763897e-03,
          1.1068474741800663e-03, 1.3981925964880303e-03, 0., 0.,
          1.4814156063748210e-03, 1.8159178009137735e-03,
          4.3734413407377536e-03, 5.1077465844407181e-04,
          2.0178461976909303e-03, 2.7492146205183908e-03,
          2.5886476778069572e-03, 5.3140208700911263e-04,
          8.4220309501250017e-04, 2.9047537496811686e-03,
          7.3578738329830944e-04, 2.6602741513874479e-03,
          2.0082060655073207e-03, 5.8780650057072125e-03,
          1.4525821782177309e-03, 2.3103298089925000e-03,
          2.8163815451107068e-03, 5.3275287490137232e-03,
          3.2397364598499051e-03, 2.8497418126757637e-03,
          2.8079197212220546e-03, 2.0922423213871969e-04,
          1.0929728762660194e-03, 1.8759383929866462e-03, 0.,
          3.7926412520780496e-03, 1.3447619873770335e-05,
          1.3677552290094703e-03, 3.1397397409062134e-03,
          8.0137885915237202e-04, 1.2900835621007900e-03,
          2.3832727400061301e-04, 1.3997109422143384e-03,
          2.4622118804668258e-04, 0., 1.2533339703862416e-03,
          1.6061276433531160e-03, 2.0233947014854118e-03,
          2.5383784803104021e-03, 1.9348208138070362e-03,
          2.0716633727570041e-03, 3.9114682121498353e-04,
          1.2506140400254881e-03, 2.3487569949581797e-03,
          2.1298351698676742e-03, 1.1904672378405365e-03,
          2.4723472731612217e-03, 2.2171145215531545e-03,
          1.4318020602737578e-03, 1.5068082480779108e-03,
          7.9047997345107633e-04, 8.9030381215669937e-04,
          1.7610612495115158e-03, 2.1201273388065413e-03,
          3.4325904373146304e-03, 8.3811066810648212e-04,
          1.1919035287526396e-04, 5.0489413499266887e-03,
          3.6131047353194089e-03, 2.0093792072564468e-03,
          1.3086035811115226e-03, 1.2625853893106630e-03,
          5.2717617460981041e-03, 1.1338005552134784e-03,
          3.4342424254385066e-03, 1.2693097554934789e-03,
          2.0149450143780775e-03, 1.8034190864158757e-03,
          1.1073398698780450e-03, 3.4291338740981784e-03,
          2.2866866468676714e-03, 2.8494294913351892e-03, 0.,
          2.6672123287664893e-03, 2.6749064968240792e-03,
          4.5380735201729014e-05, 1.0715359636848214e-04,
          1.9925962919228844e-03, 1.9511818266483131e-03,
          1.4226899508921729e-03, 1.4647237601263907e-03,
          1.3942719271184821e-03, 3.4930557306487784e-04,
          8.3655746912437970e-05, 4.9517037842573234e-04,
          2.9859433116470745e-03, 2.1622351889604113e-03,
          5.0707842960990960e-04, 9.6750384895445221e-05,
          5.9084899547134301e-03, 1.6381857795791225e-03, 0.,
          3.8356843501097086e-04, 2.3165077661162227e-03,
          1.7632210772974598e-03, 4.6736441516025433e-03, 0.,
          3.5551351860160746e-03, 2.0382491868429703e-05,
          2.6117856247682616e-03, 0., 9.6067710542734302e-04,
          1.4779438094551081e-04, 1.8843699380970368e-03,
          1.1409917011593873e-03, 1.8427200821293883e-03,
          7.0069572729069857e-04, 2.6358586805811240e-03,
          3.7170652527087756e-03, 6.0593703376993265e-03,
          1.4681606822552610e-03, 2.0398830927798468e-04,
          2.0965427585874371e-03, 0., 3.8235460530457819e-03,
          8.2089711020324444e-04, 1.7537589736002261e-03,
          1.6655577105424422e-03, 1.6818175214084507e-03, 0.,
          2.9584670064154787e-04, 7.0861407084307250e-04,
          5.1374078941627075e-03, 1.3453803293679660e-03,
          2.2077020240198445e-03, 3.4511422402004163e-03,
          2.8109863101172688e-03, 7.7828175642665365e-04,
          1.4861102858228811e-03, 4.1847496480531916e-03,
          1.1176192397062103e-04, 2.9639712503175199e-03,
          1.5792738465192396e-03, 1.3660919020372191e-03,
          1.9227554051533024e-03, 4.4980528724206385e-04,
          1.1962732989148211e-03, 1.3608669543101547e-05,
          4.4847733721351569e-03, 1.7018932078495751e-03, 0., 0.,
          1.8108747384584966e-05, 3.3429551320942430e-03,
          4.1056250901041124e-03, 3.2595316158510372e-03,
          6.7178256495605427e-03, 4.9353082028923334e-03,
          1.8120848401509107e-03, 2.4807068899747285e-03,
          2.0932698373046961e-03, 6.0749634741330593e-03,
          2.5641327155209686e-03, 4.6815277272311607e-04, 0.,
          2.9474873221546128e-03, 1.5451673283558374e-04,
          3.1756643983433267e-04, 1.3773473353189047e-03,
          1.1864468623396273e-03, 1.6028996491555879e-03,
          1.1560908605380785e-03, 7.7454717663575235e-05,
          3.4790745688838480e-03, 9.2703295767415704e-04,
          4.1798538755813056e-04, 1.1617838050666028e-03,
          2.0172984622054413e-03, 1.9858965510795015e-03,
          3.3777389036787377e-03, 2.5093467678683505e-03,
          7.8558795158445926e-04, 9.2232770993424520e-05,
          7.9315944805014992e-04, 1.5162750067805222e-03,
          2.9883538039043134e-03, 1.3691127638925207e-04,
          1.0944878555495632e-03, 2.1244617263701829e-04,
          8.5845010736110533e-04, 1.9974744540046563e-03,
          7.8689544461667538e-03, 9.7460164265199148e-04,
          6.0120427092029297e-04, 1.0370089651339433e-03,
          1.1421047627333213e-02, 8.9125513014468288e-04,
          2.0851052937690506e-03, 9.0893995101478970e-04,
          6.2416800805790865e-04, 0., 2.0380997712808576e-03,
          4.2591503270986408e-04, 7.1912325537678873e-04,
          2.0431903169744396e-03, 1.0958498407324607e-03,
          1.2153622016988018e-04, 7.1306934114545584e-04,
          2.0239781270819631e-03, 3.4282328984276813e-04,
          6.9798738695681095e-04, 7.1533339690755713e-04, 0.,
          3.5212480844083157e-03, 0., 0., 1.8460844347084112e-03,
          7.6898636127060115e-04, 2.2188486235046929e-04,
          7.2258436756039214e-04, 8.0448013349351561e-04,
          7.7395127366550946e-04, 0., 7.9681447029791093e-04,
          3.5398998509415173e-04, 3.1225993086329918e-03,
          8.9463809589770710e-04, 5.2902181844481015e-04,
          1.9559043311429295e-03, 8.4721699187701404e-04, 0.,
          4.2717799078673124e-04, 0., 1.7024858960543166e-02,
          6.0647026508707893e-04, 3.1258416658436710e-04,
          1.7980344233695757e-03, 4.9903845964846289e-04,
          9.0835267804901707e-04, 0., 3.0309303706003862e-04,
          6.7156673917038881e-04, 3.5592572954060001e-03,
          1.9075635566630147e-03, 5.3211239124224948e-04,
          1.7071531884456901e-02, 8.3048776088451802e-04,
          2.4296224265444007e-03, 2.4138875411484728e-03,
          8.9356744534928691e-04, 5.1877907244488597e-03,
          5.0734275613318789e-04, 0., 2.4494068400765008e-04,
          2.6341237085448070e-03, 5.0429201854223561e-04,
          3.6120470189912753e-03, 6.0104474912143569e-03,
          5.5031233932822943e-04, 7.7123746318234646e-04,
          1.2816398573870008e-03, 4.9214076716452837e-04,
          5.1422284238717775e-03, 1.3281376185742292e-03,
          1.2588486795059659e-03, 2.4026087696918034e-03, 0.,
          8.2259094977582049e-04, 0., 4.3090615231035790e-03,
          8.0003430643542253e-04, 1.8509104530411689e-03,
          5.6781827218153262e-04, 1.6738285247067158e-03, 0.,
          4.2444716779176488e-03, 4.3739215470850468e-04,
          4.3378892693329944e-03, 7.2241793809966611e-03,
          1.0493546830151570e-03, 2.8405100932683458e-03,
          1.8943996930664236e-03, 3.0399840748445554e-03, 0.,
          6.7296682602979918e-03, 0., 7.9384921330281281e-04,
          7.7870041872798047e-03, 0., 1.0934201153841886e-03,
          2.8530165595425801e-03, 7.1948629126630044e-04,
          7.5974886898290026e-04, 0., 1.4552507147362287e-03,
          2.2343123141168194e-03, 3.1734858004545623e-04,
          1.4494504165751014e-03, 2.1710731935772028e-03, 0.,
          1.9502882972698321e-03, 4.2033344824713740e-03,
          5.2348015279593790e-04, 3.4322063650258565e-03,
          1.6233766324479473e-04, 0., 2.5801478715782819e-03, 0.,
          9.3713942491872751e-04, 3.2770414730872621e-03,
          1.4657658757641912e-03, 2.2994238586927004e-03,
          3.1190069857984781e-03, 8.7776829869571065e-03,
          1.4077814676883547e-03, 8.1949307456273925e-04,
          5.9333313468166375e-04, 3.7968892138451338e-04,
          2.6976229326630181e-04, 6.0544761998409581e-04,
          2.1295908796177670e-04, 1.0707582325928590e-03,
          2.3487173867496576e-03, 1.1878822062333877e-03,
          1.7283149698579853e-03, 8.1962649287147960e-03,
          8.1186607183719229e-04, 2.0755499347367069e-04,
          5.3352433658966966e-03, 2.2128409579057586e-04,
          6.4698879882185301e-03, 6.2648959415541458e-04,
          3.8544735236262733e-04, 3.0561410610310058e-03,
          1.3968791092999957e-03, 4.7612381379374047e-03,
          1.2153622016988018e-04, 1.1059580243785274e-03, 0.,
          2.1914436100897464e-04, 0., 0., 3.3813543533059683e-03,
          2.4073487359353089e-04, 1.6580484066666527e-03,
          6.1284161215140068e-04, 6.5066485708071432e-03,
          2.4572965604337778e-03, 1.6394264636222613e-03,
          2.3577076446434316e-03, 0., 3.1479180748151107e-03,
          1.8370218723165719e-03, 0., 4.1986371983181343e-03,
          2.5696033315563745e-03, 3.4409464040601796e-04,
          9.0401902244510984e-04, 6.4689947546205735e-04,
          1.1561067711392586e-03, 1.8310345793989572e-03,
          1.8849643158980391e-03, 0., 3.6895139862529258e-03,
          3.4260764633390039e-04, 2.7313703480599956e-03, 0.,
          7.4465172788636255e-04, 6.5151974558830261e-04,
          8.5721500429578805e-04, 3.3123790159482849e-04,
          2.6371030517938461e-03, 6.2287513124333191e-04,
          1.3319812080060894e-03, 1.0528516087850387e-03,
          6.8270043596963990e-04, 1.7873600696806204e-03,
          7.7600907322696662e-04, 1.1670343704860320e-03,
          2.7206223669715905e-03, 2.4116510229015893e-04,
          1.2072961121289568e-03, 2.5401927467266269e-03,
          6.0552724806422543e-04, 2.1695851835168223e-03,
          1.1908040085638111e-03, 1.2889119055630132e-02,
          5.4575698661871934e-04, 6.5667220306667412e-04,
          7.0762569719756197e-04, 8.3916880910030818e-04,
          5.1409956173632636e-03, 1.1837121564894915e-04, 0.,
          6.0881005219099197e-03, 1.9301379903812301e-04,
          2.2567240309647539e-04, 0., 0., 8.6152002173052597e-04, 0.,
          1.7688095315613530e-03, 1.0169907473027706e-03,
          3.3776804974133320e-03, 5.0491166872565045e-03,
          1.7204000826247714e-03, 2.6131502924148331e-03,
          1.2447212145409801e-03, 2.9525022678585215e-03,
          3.5757527009330016e-04, 1.8887729913165624e-03,
          3.5887335384772581e-04, 1.3410080943933942e-03,
          9.6615316049957823e-04, 0., 1.9770502536134286e-03,
          8.4780241383916946e-03, 9.5289792145856404e-04,
          1.5158169924027541e-03, 6.6969437863339078e-04,
          3.2423416533592075e-04, 3.4337369090115482e-04,
          6.0806693297556853e-04, 1.2557780571197245e-02,
          4.0872679726982660e-03, 6.7051438699391758e-04,
          5.1444188945672727e-04, 2.4938829962841487e-04,
          1.1086474511433731e-04, 0., 6.7846636838195002e-04,
          3.5609926139427858e-04, 8.4894985405050902e-03, 0., 0., 0.,
          2.3691271516409788e-03, 3.3813496966930955e-04,
          7.9222420357506383e-04, 7.0380521091547880e-03,
          1.5681736298244109e-03, 8.3039226857098663e-04,
          1.1715088674629277e-04, 2.2010083987631580e-04,
          1.5879096103493463e-02, 0., 2.9614898481998930e-03,
          2.1981979212300345e-04, 1.4306091470643878e-03,
          5.9196361425248062e-04, 2.2684924770146608e-03, 0., 0.,
          2.9062415282665329e-03, 6.3680814028802240e-04,
          2.0001601025631480e-03, 1.8454645972021601e-03,
          3.5082018637860364e-04, 1.1365653904662890e-03,
          9.3914346176792279e-05, 0., 0., 4.5931348047981210e-03,
          3.2275267453356224e-04, 9.5937727971679796e-03,
          1.2552637014199388e-03, 0., 2.0149052672257476e-03,
          1.9656263863329182e-03, 9.6006953919475734e-04,
          1.9368879941546104e-03, 1.2401651845059612e-03, 0.,
          7.8516090500422501e-04, 9.2020614961670208e-04,
          2.2280306068503046e-03, 1.1715088674629277e-04,
          3.3060106745159084e-04, 1.7549966737119989e-03,
          2.7267330707135525e-03, 4.3652779211036187e-04,
          1.3878782904198901e-02, 1.1655012018639934e-04,
          3.5076965154571968e-04, 2.3054707880047235e-03,
          5.6327057113362991e-04, 2.8235788816924801e-03,
          4.2185981080613355e-03, 9.8752165848219942e-04,
          1.7739259013482795e-02, 8.9831121096556842e-05,
          1.0089476233009589e-03, 2.4204283042556863e-03,
          2.1464224185117266e-04, 1.8570191671394489e-03,
          6.4916802803054452e-03, 4.3999854348261251e-03,
          2.4084380658512768e-03, 1.1731638594276526e-03,
          7.7165145723318517e-04, 0., 1.4406849672509866e-03,
          8.5490975867618215e-04, 1.5569913031702692e-03,
          7.3150287445803933e-03, 0., 3.4315860406918960e-03,
          2.1496297664601693e-03, 0., 0., 6.4290309621190488e-04, 0.,
          1.0088845896957951e-03, 0., 3.9460711308162318e-03,
          2.7912270531735639e-03, 6.9829375821758403e-03,
          1.4250876413742928e-02, 0., 1.6274969410997901e-03,
          1.1738795702430336e-03, 1.8263561227782206e-03,
          2.2700047437948260e-03, 1.2351778886196288e-04,
          2.1296017697419634e-03, 1.3137151571837339e-04,
          1.8624155464666812e-03, 7.2980250909247184e-04,
          2.4502257901159201e-03, 2.0362911957570097e-04,
          1.2866335455328226e-03, 1.1536686427213930e-04,
          2.0299967251379380e-03, 4.2372638232667339e-04, 0.,
          5.1202189113775439e-03, 0., 5.1639031153172255e-04, 0.,
          1.7111795975572684e-03, 3.4326571039855480e-04, 0., 0.,
          1.5737661753188480e-02, 0., 8.1356228223409162e-03,
          1.0979358657178554e-04, 7.1516394911503255e-04,
          2.2670736705715007e-04, 1.4102600239725275e-03,
          1.4368440236218951e-03, 6.4882886892353951e-04,
          2.0029080650684509e-03, 2.0747406577522106e-03,
          2.0221281606196003e-03, 1.0502054038542237e-03,
          1.7288264776156707e-03, 6.1592626999217000e-03,
          3.7496847375719385e-03, 3.6479975520209832e-03,
          6.8507467883385043e-03, 8.7209993825209421e-03,
          2.8829209040850401e-03, 4.8762816851111975e-03,
          5.2944303553720765e-03, 1.0239985051818869e-03,
          1.2894320047714495e-02, 1.4116318727081472e-04,
          2.1324316886338320e-03, 8.1405873643234372e-03,
          1.1827550743791191e-03, 8.6027853698893034e-04,
          2.8956117616458373e-03, 1.0846057398752732e-03,
          1.8937099957838655e-03, 1.1185151842338118e-03, 0.,
          9.3246445017443466e-04, 1.3296729779209604e-03,
          5.7730728929693050e-03, 1.8431705592030830e-03,
          3.8950975180010905e-03, 0., 9.8411464767361235e-04,
          1.6090271528810263e-03, 1.2153622016988018e-04, 0.,
          1.4599028297445991e-03, 4.1310373926535249e-03,
          5.9377044354650104e-04, 7.7203223164277997e-03,
          5.2842959253625440e-04, 4.0779574562541466e-03, 0.,
          9.9259801526469273e-03, 0., 8.7682526050643491e-04,
          1.6134881562638013e-03, 0., 5.9543619863688946e-04,
          9.8403618374670100e-04, 0., 8.1693974154239350e-03, 0.,
          1.3750633330677044e-03, 1.4724890510974960e-03, 0.,
          4.0628410431302409e-03, 0., 1.8213483377952468e-03, 0.,
          6.0510789890858257e-04, 1.1251124934377995e-04,
          9.6467546906999564e-04, 1.2768493880602448e-03,
          1.0473749028857460e-03, 7.5643292247233066e-03,
          2.7395586737177591e-03, 0., 2.4635559053752909e-03,
          1.4991349307820201e-03, 1.3029554551890627e-02,
          6.4360814973373306e-04, 0., 2.6218062901700085e-04,
          1.0752663100984964e-03, 4.0813612709329885e-04,
          6.7201267335225236e-04, 1.9661630609665403e-03, 0.,
          9.6283535557714379e-04, 1.7280119926330040e-02,
          2.5943826397203588e-03, 2.1760154049843550e-04,
          8.9381236201998865e-04, 1.5769749139012260e-03,
          4.8392409966750580e-04, 4.5670235783539037e-03,
          6.9882002002982935e-03, 8.4449212193827736e-04, 0.,
          1.9564625214446674e-03, 4.5153712430460888e-04,
          1.9315117229284210e-03, 2.0538007798181338e-03,
          2.1053061460737476e-03, 1.6250752589919350e-03, 0.,
          5.9064650188454175e-04, 4.7314082357016478e-03, 0., 0., 0.,
          2.6080895172940059e-03, 5.4696531416001642e-04,
          6.2385532708669257e-04, 2.0755499347367069e-04,
          3.1157956373962488e-03, 1.9407120469788260e-03,
          2.2085760720074177e-03, 1.7735735746100545e-03,
          1.9727715037085795e-03, 6.2269716396589172e-04,
          1.2088974472135305e-04, 0., 6.1768073249946940e-04,
          1.4133179465054789e-02, 8.0846639625220141e-03, 0.,
          2.4585031840780921e-03, 0., 5.9909532269970941e-04, 0., 0.,
          1.6312914318405092e-02, 1.0862974555824292e-03,
          6.3932309223508298e-04, 0., 4.2319976174357265e-04,
          1.9640429580414839e-03, 0., 5.3687458117069172e-03,
          1.0377749673683535e-04, 1.8004760336638851e-03,
          1.1365389324386012e-03, 1.9457534654065967e-03,
          1.1671676927674970e-03, 3.0933207628185567e-03,
          1.8413860796775913e-03, 1.4997053894657045e-03,
          2.4544203558772297e-03, 2.6591433687364811e-03,
          2.3722591390634012e-03, 8.4568914168594070e-04,
          1.3557948378100258e-03, 3.7598276135661080e-03,
          7.1783093978334113e-04, 3.1974850970313009e-03,
          3.3374425456262785e-03, 1.8967926823341126e-03,
          2.2493162608892836e-03, 2.1209979826730492e-03,
          2.5848365554454562e-03, 2.0661436519836618e-03,
          2.8919104335963773e-03, 2.9404557522870415e-03,
          2.6684331455058196e-03, 3.6568296709465764e-03,
          3.9994490776954078e-03, 5.2671758703333482e-04,
          3.2490213181938631e-03, 4.6340381826913077e-04,
          3.1121958161517422e-05, 1.5192167539095152e-03,
          8.8862561838043094e-04, 4.2527694217350233e-05,
          3.5441630871669468e-03, 7.8499941846419850e-04,
          1.0333800711607463e-03, 1.3618915240772239e-03,
          9.4954022814888208e-04, 2.1512520049477395e-03,
          1.0089403791131778e-03, 1.1647389319549587e-03,
          1.6402268951354246e-03, 3.3161352119280216e-03,
          2.3502545802062944e-03, 2.8102029389055990e-03,
          3.6327560625784077e-03, 2.8657316190499292e-03,
          3.4225036544039772e-05, 3.6391997417484488e-03,
          3.0099531258453130e-03, 3.4209293183802697e-03,
          2.3189068832265691e-03, 2.0594793125910818e-03,
          2.8237274001656452e-03, 1.3644060411301816e-03,
          1.6760839077914469e-03, 4.7618460152997571e-05,
          9.0937393797565136e-04, 2.2093581162632770e-03,
          1.5958828443565852e-03, 2.1087384447585882e-03,
          9.7865364937927898e-04, 2.4137581816752679e-03,
          9.1326290776367388e-04, 3.1613458426985926e-03,
          1.0198088428104040e-03, 1.4759726013703644e-03,
          1.9338649068953836e-03, 1.5541790257970985e-03,
          1.8881585301050981e-03, 1.0820824247362462e-03,
          3.0487215284312886e-03, 1.3368706362121591e-03,
          1.8533308618341956e-03, 2.0511368963135445e-03,
          2.2337569828741501e-03, 2.9601115676138215e-03,
          1.0335457876080301e-03, 1.3348826554867891e-03,
          3.6421886674426794e-03, 2.5424596417218878e-03,
          1.8608444108940299e-03, 4.2688482206968519e-03,
          2.6976183845836632e-03, 4.0746810430625346e-03,
          3.2406549982414355e-05, 3.1357433338902864e-03,
          7.0709679071151931e-04, 3.1004262597317668e-03,
          4.3385234520733112e-04, 1.8354633123742810e-03,
          1.2453595540436860e-04, 9.7574117800929439e-04,
          1.4024433741067950e-03, 4.7048288016418123e-03,
          3.8434074307575994e-03, 3.7000178052267255e-03,
          4.2261488780138351e-03, 2.8428037281035545e-03,
          3.0166067245265089e-03, 3.3293052650183692e-04,
          3.4073023125786731e-03, 0., 2.2589656476289643e-03,
          9.2020729074344400e-04, 3.7306365740331262e-05,
          2.5139238463345011e-03, 2.1012479464322213e-03,
          1.0545702392521714e-03, 3.5349205114834780e-03,
          1.1629875026066753e-05, 2.2302706805299912e-03,
          2.0040750518122924e-03, 1.2531423605284631e-04,
          3.0731369826112035e-03, 2.8206082696834102e-03,
          3.4977156720219356e-05, 2.5570915943946291e-03,
          4.2023992719912090e-03, 1.8974720508446140e-03,
          4.5035760502472278e-03, 2.5578353072670634e-03,
          1.4428182249877851e-04, 3.7884215125899962e-03,
          1.9075450783101505e-03, 2.1401829194142162e-03,
          3.5371962418816560e-03, 2.6240414595360066e-03,
          3.7214857154698254e-03, 3.0461506845799137e-03,
          2.7649218175095748e-03, 3.6710898353792590e-03,
          2.6715632630358398e-04, 1.7889666207414289e-03,
          6.5169994285392573e-04, 1.0047062651629972e-03,
          1.0248281397165634e-03, 1.7048217839229194e-03,
          3.6716087316220098e-03, 1.0785693353430909e-03,
          2.3598259702441613e-03, 2.0866819745019131e-03,
          4.2151508931431375e-03, 2.5662452904501869e-03,
          2.1764025470351030e-03, 2.2503231899935203e-03,
          1.2058821881951874e-03, 2.3865228110890352e-03,
          4.6611180097678173e-03, 8.8750076601170648e-04,
          1.9481593745809523e-03, 3.2037171807447955e-03,
          3.3425009380531000e-03, 1.7543177346660325e-03,
          1.9826892192807265e-03, 2.6208554965366391e-03,
          7.8377428482426931e-04, 1.3259821978692410e-03,
          1.5428501498364962e-04, 1.2908401722832332e-03,
          3.1710441981974328e-04, 3.0275902699248031e-03,
          1.6067942543153118e-03, 2.1498842184174889e-03,
          2.4186374718717578e-03, 9.9766437576956964e-04,
          3.0609124595741585e-03, 1.6598086684134537e-04,
          1.8206344042647645e-03, 2.2000463931361710e-03, 0.,
          2.9443548527617850e-03, 2.6337452882774417e-03,
          1.5157014435511497e-03, 1.6105221185916388e-03,
          1.3787759214272698e-03, 2.8940585831519388e-03,
          5.7844468417425849e-04, 3.2637149267782288e-03, 0.,
          3.2726500677821685e-03, 7.9917386845430296e-04,
          2.6207682417530519e-03, 2.9803640554113223e-03,
          3.5002550885962712e-03, 1.7112406714563945e-03,
          8.2657285297198040e-04, 5.4962572715809240e-04,
          6.1060599598128785e-04, 1.2075838123936850e-03,
          2.4369649293812818e-03, 7.8549473036345610e-04,
          1.1235389185424282e-03, 1.9635716841632268e-03,
          2.6096582723674530e-04, 1.4241601212038662e-03,
          2.5832766103448803e-03, 2.5268792342478829e-03,
          2.8323816754849897e-03, 7.1613507155500033e-04,
          3.7533891620951772e-04, 3.4664125218255900e-03,
          1.9585271603592374e-03, 2.0160303151327353e-03,
          1.0509685887571181e-03, 3.3082864762407596e-03,
          3.0283823293649208e-04, 2.0667734426284747e-03,
          1.3933620651648440e-03, 1.8051540942073216e-03,
          2.3040953912384374e-03, 2.9048403298954657e-03,
          2.1467173883950750e-03, 2.0052679862341237e-03, 0.,
          7.0921294144697512e-05, 8.0986096145402005e-04,
          1.2353431668744341e-03, 1.6165545981424150e-03,
          2.9879814154608166e-03, 3.2984229168628214e-03,
          2.8519674008225969e-03, 1.9246620666634722e-03,
          5.3580158582865027e-04, 3.1572889311015464e-03,
          4.4895268689651019e-03, 2.4567181850949533e-03,
          3.2490507412172597e-03, 1.9881673703767058e-03,
          4.8867242077900155e-03, 2.4202168909386295e-03,
          3.1646451388913596e-03, 1.5417276543722490e-03,
          2.4898823246655498e-03, 1.1411429480440230e-03,
          9.3956999405043660e-04, 1.6923760056700931e-03,
          2.1959727080892505e-03, 1.5838897340336151e-03,
          2.6710761951701596e-03, 3.2343239857040127e-03,
          4.2211718180212854e-03, 1.9738127556856023e-03,
          6.7402291045142544e-04, 7.7700158829608961e-04,
          7.2250592341377938e-04, 5.6423128115089521e-04,
          1.7060426473129598e-03, 1.9338449105065895e-03,
          2.6033146039768432e-03, 2.3080627677271323e-03,
          2.3504580628973242e-03, 2.4800498294329687e-04,
          3.0757699763734104e-03, 2.1379050168110975e-03,
          2.0520858594421428e-03, 2.0839483436682999e-03,
          9.8070365851632576e-04, 1.0423166307853826e-03,
          8.7439503706833303e-04, 2.8357739345770037e-03,
          2.5157460840961013e-03, 3.1223267440814691e-03,
          3.3575563796994609e-03, 1.4193085443478812e-03,
          1.0676973556643830e-03, 1.4671149154183273e-03,
          2.0194075578804115e-03, 1.7319071562229898e-03,
          4.3853999221105926e-03, 3.0520945705893106e-03,
          7.7306915632864744e-05, 3.6415826446660605e-03,
          2.5303440627148892e-03, 8.8078554979939940e-04,
          6.0415460087801800e-04, 1.9726098250798388e-03,
          1.5165487034665700e-04, 0., 2.8704865409244903e-03,
          1.7976789454114933e-03, 2.4227844605088193e-03,
          3.0368159979817029e-03, 0., 3.1837962148978842e-03,
          2.4120274615803900e-03, 1.1735726102106783e-03,
          2.9382903325478283e-03, 1.2563263082908465e-03, 0.,
          2.2531099992057022e-03, 2.2632703380885159e-03,
          6.4512177154593302e-03, 2.4840118208836059e-04,
          8.3494772184049563e-04, 2.6328849342020957e-03,
          2.4432263399022996e-03, 2.8284558152704984e-03,
          1.8333289874677952e-03, 9.2685265278505315e-04,
          1.4745331219126654e-03, 2.2073783940904845e-03,
          2.8797393222519808e-03, 2.8776032220196460e-03,
          3.8256610934911382e-03, 3.9925830386386167e-03,
          2.2459699849471135e-03, 1.1250171820999764e-03,
          1.0540478708410388e-03, 5.6231189054770907e-03,
          2.1364843802650873e-03, 3.2009144106612134e-03,
          4.6939373794583697e-03, 3.0643072293045828e-03,
          3.9217965481476011e-03, 2.8795661679710339e-03,
          2.1541280221552489e-03, 8.1104731758954219e-04,
          2.9211503083425646e-03, 1.0808074027991077e-04,
          4.5264006876649318e-03, 3.0312528566526706e-03,
          9.8988957068162791e-04, 4.1112945118168126e-03,
          2.0048887580915551e-03, 0., 1.9800609092083404e-05,
          1.8114507571928052e-03, 4.7162962880422266e-04,
          3.3305914374352889e-03, 4.7720040532865898e-04,
          1.6889717186562882e-03, 2.7568432612421682e-03,
          2.5880028336595987e-03, 1.8868384878390388e-03,
          7.7043168835781413e-04, 3.5828841450911302e-03,
          2.7634463957087996e-03, 2.2717657586077840e-03,
          2.7655299674490793e-03, 1.5766429965290187e-03,
          1.6026661302354049e-03, 6.6936878068764609e-04,
          2.3806773722012298e-03, 1.8054043399858884e-03,
          1.5702212343911654e-03, 2.2652159525040137e-03,
          1.4201939951472415e-03, 2.3361056688188880e-04,
          4.5668544479239922e-04, 1.5259700757009333e-03, 0.,
          4.0965400371464605e-03, 1.8127317879010415e-05,
          5.5288412035832705e-04, 4.8580935263608724e-04,
          2.5265627665868808e-03, 2.1256752565533472e-03,
          1.1155996295423379e-03, 1.1210802950356168e-03,
          2.9103964488789323e-03, 3.7627917115859375e-05,
          2.3752519692530108e-03, 5.2275009502146020e-04,
          1.5587139546386138e-03, 1.2994830057353746e-03,
          2.2107670037250621e-03, 2.3097170718982814e-03,
          1.0391987400380082e-03, 2.2733629871897797e-03,
          1.0435145417865552e-03, 3.0525152802310020e-03,
          3.9921488409104377e-03, 2.1571194108668725e-03,
          3.9409027771264496e-03, 4.5721127373123550e-03,
          1.8171973822987434e-03, 2.6377118844756052e-03,
          2.6718995849192503e-03, 4.5342215239865188e-03,
          1.1390353785567929e-03, 2.0573689929392360e-03,
          1.0412812132302766e-03, 2.1135491942085066e-03,
          1.0912985349563022e-03, 1.9600183891074750e-03,
          1.9673669860802725e-03, 6.0993771493462470e-04,
          5.1227219044670310e-03, 1.8800112937921835e-03,
          2.4355560215448013e-03, 1.1700906818475944e-03,
          6.4033875461436162e-04, 1.1220775643362632e-03,
          3.2990039228462161e-03, 3.3175339634154625e-03,
          2.7171408892162031e-03, 5.4083953666752595e-03,
          6.0310262236781137e-04, 0., 1.2735955882675482e-03,
          2.3524158379629374e-03, 8.7087019358716373e-05,
          9.2716193847519184e-05, 4.5121301906347177e-03,
          2.7585070649601634e-03, 6.4929934596480421e-04,
          2.1100068029400810e-03, 3.6813178258976891e-03,
          3.0761320380684326e-03, 0., 2.8650948231973309e-03,
          1.8786821386258792e-03, 3.3548452795983293e-03,
          3.0893098938221081e-03, 2.0967693207706797e-05,
          9.8496000758518097e-04, 2.8510078941364381e-03, 0.,
          2.9907199803607576e-03, 2.4252362315794903e-03,
          1.5044487577623815e-03, 3.1337101216218259e-03, 0.,
          3.3677986473971762e-03, 0., 2.0173841853574409e-03, 0.,
          6.2744460439187531e-04, 1.1629875026066753e-05,
          1.8320678761975123e-03, 4.2152596168104108e-04,
          1.4699434083019719e-03, 2.7562475416639583e-03,
          1.7982000665161301e-03, 2.8073827125061203e-03,
          1.8991275564299373e-03, 2.9570252882879190e-03,
          1.5875420181360560e-03, 1.1779521533135883e-03, 0.,
          1.0776027500332410e-03, 3.1816672643814482e-03,
          3.2511692183044717e-03, 1.3315066342536755e-03,
          2.5299680439520252e-03, 0., 2.6073364053489024e-04,
          3.9427406260912068e-03, 2.8938214636958191e-03,
          8.4122505277366188e-04, 1.2984243206478549e-03,
          2.9407989621030727e-03, 1.3692042680098484e-03,
          1.6907590575774469e-03, 4.1185534163731136e-03,
          2.6452650440069647e-03, 1.1629875026066753e-05,
          3.1166478803302321e-03, 7.4683118086423352e-04,
          3.8684559581444100e-03, 3.5585495203842733e-03,
          3.2695910508737666e-03, 4.4046032076488486e-03,
          1.2218730220198128e-05, 2.4202477515575544e-03,
          3.5091387174964912e-03, 3.0402508961482305e-05, 0., 0.,
          3.3101707056939146e-03, 1.9826177578085255e-03,
          8.5331750170220498e-04, 2.2989096797241719e-03,
          3.3068832239257265e-03, 4.0392810545141263e-03,
          3.3004644763814351e-03, 7.0560173563973287e-04,
          1.9589847617391175e-03, 1.4319359847091808e-03,
          7.5496422030819747e-04, 1.2296556401360484e-05,
          1.2882889719922539e-03, 2.5660378729997703e-03,
          2.5662317652494957e-03, 1.0520970786283999e-03,
          2.0246363076353037e-03, 8.5394482242891851e-04,
          1.1400394240242511e-03, 3.7063200614712838e-05,
          1.6148820267915798e-03, 5.0730004713072496e-03,
          3.4563478182917454e-03, 3.3335839636897788e-03,
          7.6543737007079269e-04, 3.2370574827710768e-03,
          3.6108371845634791e-03, 7.1784835923742289e-04,
          2.8676375443075991e-03, 0., 2.3597232085051413e-03,
          2.7885328338281023e-03, 1.3823380016953317e-03 ]
   covs:
      - !!opencv-matrix
         rows: 500
         cols: 500
         dt: d
         data: [ 3.6370326464103654e-05, 0., 0., 0., 0., 0., 0., 0., 0.,
             0., 0., 0., 0., 0., 0., 0., 0., 0., 0., 0., 0., 0., 0., 0.,
             0., 0., 0., 0., 0., 0., 0., 0., 0., 0., 0., 0., 0., 0., 0.,
             0., 0., 0., 0., 0., 0., 0., 0., 0., 0., 0., 0., 0., 0., 0.,
             0., 0., 0., 0., 0., 0., 0., 0., 0., 0., 0., 0., 0., 0., 0.,
             0., 0., 0., 0., 0., 0., 0., 0., 0., 0., 0., 0., 0., 0., 0.,
             0., 0., 0., 0., 0., 0., 0., 0., 0., 0., 0., 0., 0., 0., 0.,
             0., 0., 0., 0., 0., 0., 0., 0., 0., 0., 0., 0., 0., 0., 0.,
             0., 0., 0., 0., 0., 0., 0., 0., 0., 0., 0., 0., 0., 0., 0.,
             0., 0., 0., 0., 0., 0., 0., 0., 0., 0., 0., 0., 0., 0., 0.,
             0., 0., 0., 0., 0., 0., 0., 0., 0., 0., 0., 0., 0., 0., 0.,
             0., 0., 0., 0., 0., 0., 0., 0., 0., 0., 0., 0., 0., 0., 0.,
             0., 0., 0., 0., 0., 0., 0., 0., 0., 0., 0., 0., 0., 0., 0.,
             0., 0., 0., 0., 0., 0., 0., 0., 0., 0., 0., 0., 0., 0., 0.,
             0., 0., 0., 0., 0., 0., 0., 0., 0., 0., 0., 0., 0., 0., 0.,
             0., 0., 0., 0., 0., 0., 0., 0., 0., 0., 0., 0., 0., 0., 0.,
             0., 0., 0., 0., 0., 0., 0., 0., 0., 0., 0., 0., 0., 0., 0.,
             0., 0., 0., 0., 0., 0., 0., 0., 0., 0., 0., 0., 0., 0., 0.,
             0., 0., 0., 0., 0., 0., 0., 0., 0., 0., 0., 0., 0., 0., 0.,
             0., 0., 0., 0., 0., 0., 0., 0., 0., 0., 0., 0., 0., 0., 0.,
             0., 0., 0., 0., 0., 0., 0., 0., 0., 0., 0., 0., 0., 0., 0.,
             0., 0., 0., 0., 0., 0., 0., 0., 0., 0., 0., 0., 0., 0., 0.,
             0., 0., 0., 0., 0., 0., 0., 0., 0., 0., 0., 0., 0., 0., 0.,
             0., 0., 0., 0., 0., 0., 0., 0., 0., 0., 0., 0., 0., 0., 0.,
             0., 0., 0., 0., 0., 0., 0., 0., 0., 0., 0., 0., 0., 0., 0.,
             0., 0., 0., 0., 0., 0., 0., 0., 0., 0., 0., 0., 0., 0., 0.,
             0., 0., 0., 0., 0., 0., 0., 0., 0., 0., 0., 0., 0., 0., 0.,
             0., 0., 0., 0., 0., 0., 0., 0., 0., 0., 0., 0., 0., 0., 0.,
             0., 0., 0., 0., 0., 0., 0., 0., 0., 0., 0., 0., 0., 0., 0.,
             0., 0., 0., 0., 0., 0., 0., 0., 0., 0., 0., 0., 0., 0., 0.,
             0., 0., 0., 0., 0., 0., 0., 0., 0., 0., 0., 0., 0., 0., 0.,
             0., 0., 0., 0., 0., 0., 0., 0., 0., 0., 0., 0., 0., 0., 0.,
             0., 0., 0., 0., 0., 0., 0., 0., 0., 0., 0., 0., 0., 0., 0.,
             0., 0., 0., 0., 0., 0., 0., 0., 0., 0., 0., 0.,
             7.9915498983639048e-06, 0., 0., 0., 0., 0., 0., 0., 0., 0.,
             0., 0., 0., 0., 0., 0., 0., 0., 0., 0., 0., 0., 0., 0., 0.,
             0., 0., 0., 0., 0., 0., 0., 0., 0., 0., 0., 0., 0., 0., 0.,
             0., 0., 0., 0., 0., 0., 0., 0., 0., 0., 0., 0., 0., 0., 0.,
             0., 0., 0., 0., 0., 0., 0., 0., 0., 0., 0., 0., 0., 0., 0.,
             0., 0., 0., 0., 0., 0., 0., 0., 0., 0., 0., 0., 0., 0., 0.,
             0., 0., 0., 0., 0., 0., 0., 0., 0., 0., 0., 0., 0., 0., 0.,
             0., 0., 0., 0., 0., 0., 0., 0., 0., 0., 0., 0., 0., 0., 0.,
             0., 0., 0., 0., 0., 0., 0., 0., 0., 0., 0., 0., 0., 0., 0.,
             0., 0., 0., 0., 0., 0., 0., 0., 0., 0., 0., 0., 0., 0., 0.,
             0., 0., 0., 0., 0., 0., 0., 0., 0., 0., 0., 0., 0., 0., 0.,
             0., 0., 0., 0., 0., 0., 0., 0., 0., 0., 0., 0., 0., 0., 0.,
             0., 0., 0., 0., 0., 0., 0., 0., 0., 0., 0., 0., 0., 0., 0.,
             0., 0., 0., 0., 0., 0., 0., 0., 0., 0., 0., 0., 0., 0., 0.,
             0., 0., 0., 0., 0., 0., 0., 0., 0., 0., 0., 0., 0., 0., 0.,
             0., 0., 0., 0., 0., 0., 0., 0., 0., 0., 0., 0., 0., 0., 0.,
             0., 0., 0., 0., 0., 0., 0., 0., 0., 0., 0., 0., 0., 0., 0.,
             0., 0., 0., 0., 0., 0., 0., 0., 0., 0., 0., 0., 0., 0., 0.,
             0., 0., 0., 0., 0., 0., 0., 0., 0., 0., 0., 0., 0., 0., 0.,
             0., 0., 0., 0., 0., 0., 0., 0., 0., 0., 0., 0., 0., 0., 0.,
             0., 0., 0., 0., 0., 0., 0., 0., 0., 0., 0., 0., 0., 0., 0.,
             0., 0., 0., 0., 0., 0., 0., 0., 0., 0., 0., 0., 0., 0., 0.,
             0., 0., 0., 0., 0., 0., 0., 0., 0., 0., 0., 0., 0., 0., 0.,
             0., 0., 0., 0., 0., 0., 0., 0., 0., 0., 0., 0., 0., 0., 0.,
             0., 0., 0., 0., 0., 0., 0., 0., 0., 0., 0., 0., 0., 0., 0.,
             0., 0., 0., 0., 0., 0., 0., 0., 0., 0., 0., 0., 0., 0., 0.,
             0., 0., 0., 0., 0., 0., 0., 0., 0., 0., 0., 0., 0., 0., 0.,
             0., 0., 0., 0., 0., 0., 0., 0., 0., 0., 0., 0., 0., 0., 0.,
             0., 0., 0., 0., 0., 0., 0., 0., 0., 0., 0., 0., 0., 0., 0.,
             0., 0., 0., 0., 0., 0., 0., 0., 0., 0., 0., 0., 0., 0., 0.,
             0., 0., 0., 0., 0., 0., 0., 0., 0., 0., 0., 0., 0., 0., 0.,
             0., 0., 0., 0., 0., 0., 0., 0., 0., 0., 0., 0., 0., 0., 0.,
             0., 0., 0., 0., 0., 0., 0., 0., 0., 0., 0., 0., 0., 0., 0.,
             0., 0., 0., 0., 0., 0., 0., 0., 0., 0., 0.,
             2.3656628205636347e-05, 0., 0., 0., 0., 0., 0., 0., 0., 0.,
             0., 0., 0., 0., 0., 0., 0., 0., 0., 0., 0., 0., 0., 0., 0.,
             0., 0., 0., 0., 0., 0., 0., 0., 0., 0., 0., 0., 0., 0., 0.,
             0., 0., 0., 0., 0., 0., 0., 0., 0., 0., 0., 0., 0., 0., 0.,
             0., 0., 0., 0., 0., 0., 0., 0., 0., 0., 0., 0., 0., 0., 0.,
             0., 0., 0., 0., 0., 0., 0., 0., 0., 0., 0., 0., 0., 0., 0.,
             0., 0., 0., 0., 0., 0., 0., 0., 0., 0., 0., 0., 0., 0., 0.,
             0., 0., 0., 0., 0., 0., 0., 0., 0., 0., 0., 0., 0., 0., 0.,
             0., 0., 0., 0., 0., 0., 0., 0., 0., 0., 0., 0., 0., 0., 0.,
             0., 0., 0., 0., 0., 0., 0., 0., 0., 0., 0., 0., 0., 0., 0.,
             0., 0., 0., 0., 0., 0., 0., 0., 0., 0., 0., 0., 0., 0., 0.,
             0., 0., 0., 0., 0., 0., 0., 0., 0., 0., 0., 0., 0., 0., 0.,
             0., 0., 0., 0., 0., 0., 0., 0., 0., 0., 0., 0., 0., 0., 0.,
             0., 0., 0., 0., 0., 0., 0., 0., 0., 0., 0., 0., 0., 0., 0.,
             0., 0., 0., 0., 0., 0., 0., 0., 0., 0., 0., 0., 0., 0., 0.,
             0., 0., 0., 0., 0., 0., 0., 0., 0., 0., 0., 0., 0., 0., 0.,
             0., 0., 0., 0., 0., 0., 0., 0., 0., 0., 0., 0., 0., 0., 0.,
             0., 0., 0., 0., 0., 0., 0., 0., 0., 0., 0., 0., 0., 0., 0.,
             0., 0., 0., 0., 0., 0., 0., 0., 0., 0., 0., 0., 0., 0., 0.,
             0., 0., 0., 0., 0., 0., 0., 0., 0., 0., 0., 0., 0., 0., 0.,
             0., 0., 0., 0., 0., 0., 0., 0., 0., 0., 0., 0., 0., 0., 0.,
             0., 0., 0., 0., 0., 0., 0., 0., 0., 0., 0., 0., 0., 0., 0.,
             0., 0., 0., 0., 0., 0., 0., 0., 0., 0., 0., 0., 0., 0., 0.,
             0., 0., 0., 0., 0., 0., 0., 0., 0., 0., 0., 0., 0., 0., 0.,
             0., 0., 0., 0., 0., 0., 0., 0., 0., 0., 0., 0., 0., 0., 0.,
             0., 0., 0., 0., 0., 0., 0., 0., 0., 0., 0., 0., 0., 0., 0.,
             0., 0., 0., 0., 0., 0., 0., 0., 0., 0., 0., 0., 0., 0., 0.,
             0., 0., 0., 0., 0., 0., 0., 0., 0., 0., 0., 0., 0., 0., 0.,
             0., 0., 0., 0., 0., 0., 0., 0., 0., 0., 0., 0., 0., 0., 0.,
             0., 0., 0., 0., 0., 0., 0., 0., 0., 0., 0., 0., 0., 0., 0.,
             0., 0., 0., 0., 0., 0., 0., 0., 0., 0., 0., 0., 0., 0., 0.,
             0., 0., 0., 0., 0., 0., 0., 0., 0., 0., 0., 0., 0., 0., 0.,
             0., 0., 0., 0., 0., 0., 0., 0., 0., 0., 0., 0., 0., 0., 0.,
             0., 0., 0., 0., 0., 0., 0., 0., 0., 0., 0.,
             5.7577317123292381e-06, 0., 0., 0., 0., 0., 0., 0., 0., 0.,
             0., 0., 0., 0., 0., 0., 0., 0., 0., 0., 0., 0., 0., 0., 0.,
             0., 0., 0., 0., 0., 0., 0., 0., 0., 0., 0., 0., 0., 0., 0.,
             0., 0., 0., 0., 0., 0., 0., 0., 0., 0., 0., 0., 0., 0., 0.,
             0., 0., 0., 0., 0., 0., 0., 0., 0., 0., 0., 0., 0., 0., 0.,
             0., 0., 0., 0., 0., 0., 0., 0., 0., 0., 0., 0., 0., 0., 0.,
             0., 0., 0., 0., 0., 0., 0., 0., 0., 0., 0., 0., 0., 0., 0.,
             0., 0., 0., 0., 0., 0., 0., 0., 0., 0., 0., 0., 0., 0., 0.,
             0., 0., 0., 0., 0., 0., 0., 0., 0., 0., 0., 0., 0., 0., 0.,
             0., 0., 0., 0., 0., 0., 0., 0., 0., 0., 0., 0., 0., 0., 0.,
             0., 0., 0., 0., 0., 0., 0., 0., 0., 0., 0., 0., 0., 0., 0.,
             0., 0., 0., 0., 0., 0., 0., 0., 0., 0., 0., 0., 0., 0., 0.,
             0., 0., 0., 0., 0., 0., 0., 0., 0., 0., 0., 0., 0., 0., 0.,
             0., 0., 0., 0., 0., 0., 0., 0., 0., 0., 0., 0., 0., 0., 0.,
             0., 0., 0., 0., 0., 0., 0., 0., 0., 0., 0., 0., 0., 0., 0.,
             0., 0., 0., 0., 0., 0., 0., 0., 0., 0., 0., 0., 0., 0., 0.,
             0., 0., 0., 0., 0., 0., 0., 0., 0., 0., 0., 0., 0., 0., 0.,
             0., 0., 0., 0., 0., 0., 0., 0., 0., 0., 0., 0., 0., 0., 0.,
             0., 0., 0., 0., 0., 0., 0., 0., 0., 0., 0., 0., 0., 0., 0.,
             0., 0., 0., 0., 0., 0., 0., 0., 0., 0., 0., 0., 0., 0., 0.,
             0., 0., 0., 0., 0., 0., 0., 0., 0., 0., 0., 0., 0., 0., 0.,
             0., 0., 0., 0., 0., 0., 0., 0., 0., 0., 0., 0., 0., 0., 0.,
             0., 0., 0., 0., 0., 0., 0., 0., 0., 0., 0., 0., 0., 0., 0.,
             0., 0., 0., 0., 0., 0., 0., 0., 0., 0., 0., 0., 0., 0., 0.,
             0., 0., 0., 0., 0., 0., 0., 0., 0., 0., 0., 0., 0., 0., 0.,
             0., 0., 0., 0., 0., 0., 0., 0., 0., 0., 0., 0., 0., 0., 0.,
             0., 0., 0., 0., 0., 0., 0., 0., 0., 0., 0., 0., 0., 0., 0.,
             0., 0., 0., 0., 0., 0., 0., 0., 0., 0., 0., 0., 0., 0., 0.,
             0., 0., 0., 0., 0., 0., 0., 0., 0., 0., 0., 0., 0., 0., 0.,
             0., 0., 0., 0., 0., 0., 0., 0., 0., 0., 0., 0., 0., 0., 0.,
             0., 0., 0., 0., 0., 0., 0., 0., 0., 0., 0., 0., 0., 0., 0.,
             0., 0., 0., 0., 0., 0., 0., 0., 0., 0., 0., 0., 0., 0., 0.,
             0., 0., 0., 0., 0., 0., 0., 0., 0., 0., 0., 0., 0., 0., 0.,
             0., 0., 0., 0., 0., 0., 0., 0., 0., 0., 0.,
             4.1347498524455775e-05, 0., 0., 0., 0., 0., 0., 0., 0., 0.,
             0., 0., 0., 0., 0., 0., 0., 0., 0., 0., 0., 0., 0., 0., 0.,
             0., 0., 0., 0., 0., 0., 0., 0., 0., 0., 0., 0., 0., 0., 0.,
             0., 0., 0., 0., 0., 0., 0., 0., 0., 0., 0., 0., 0., 0., 0.,
             0., 0., 0., 0., 0., 0., 0., 0., 0., 0., 0., 0., 0., 0., 0.,
             0., 0., 0., 0., 0., 0., 0., 0., 0., 0., 0., 0., 0., 0., 0.,
             0., 0., 0., 0., 0., 0., 0., 0., 0., 0., 0., 0., 0., 0., 0.,
             0., 0., 0., 0., 0., 0., 0., 0., 0., 0., 0., 0., 0., 0., 0.,
             0., 0., 0., 0., 0., 0., 0., 0., 0., 0., 0., 0., 0., 0., 0.,
             0., 0., 0., 0., 0., 0., 0., 0., 0., 0., 0., 0., 0., 0., 0.,
             0., 0., 0., 0., 0., 0., 0., 0., 0., 0., 0., 0., 0., 0., 0.,
             0., 0., 0., 0., 0., 0., 0., 0., 0., 0., 0., 0., 0., 0., 0.,
             0., 0., 0., 0., 0., 0., 0., 0., 0., 0., 0., 0., 0., 0., 0.,
             0., 0., 0., 0., 0., 0., 0., 0., 0., 0., 0., 0., 0., 0., 0.,
             0., 0., 0., 0., 0., 0., 0., 0., 0., 0., 0., 0., 0., 0., 0.,
             0., 0., 0., 0., 0., 0., 0., 0., 0., 0., 0., 0., 0., 0., 0.,
             0., 0., 0., 0., 0., 0., 0., 0., 0., 0., 0., 0., 0., 0., 0.,
             0., 0., 0., 0., 0., 0., 0., 0., 0., 0., 0., 0., 0., 0., 0.,
             0., 0., 0., 0., 0., 0., 0., 0., 0., 0., 0., 0., 0., 0., 0.,
             0., 0., 0., 0., 0., 0., 0., 0., 0., 0., 0., 0., 0., 0., 0.,
             0., 0., 0., 0., 0., 0., 0., 0., 0., 0., 0., 0., 0., 0., 0.,
             0., 0., 0., 0., 0., 0., 0., 0., 0., 0., 0., 0., 0., 0., 0.,
             0., 0., 0., 0., 0., 0., 0., 0., 0., 0., 0., 0., 0., 0., 0.,
             0., 0., 0., 0., 0., 0., 0., 0., 0., 0., 0., 0., 0., 0., 0.,
             0., 0., 0., 0., 0., 0., 0., 0., 0., 0., 0., 0., 0., 0., 0.,
             0., 0., 0., 0., 0., 0., 0., 0., 0., 0., 0., 0., 0., 0., 0.,
             0., 0., 0., 0., 0., 0., 0., 0., 0., 0., 0., 0., 0., 0., 0.,
             0., 0., 0., 0., 0., 0., 0., 0., 0., 0., 0., 0., 0., 0., 0.,
             0., 0., 0., 0., 0., 0., 0., 0., 0., 0., 0., 0., 0., 0., 0.,
             0., 0., 0., 0., 0., 0., 0., 0., 0., 0., 0., 0., 0., 0., 0.,
             0., 0., 0., 0., 0., 0., 0., 0., 0., 0., 0., 0., 0., 0., 0.,
             0., 0., 0., 0., 0., 0., 0., 0., 0., 0., 0., 0., 0., 0., 0.,
             0., 0., 0., 0., 0., 0., 0., 0., 0., 0., 0., 0., 0., 0., 0.,
             0., 0., 0., 0., 0., 0., 0., 0., 0., 0., 0.,
             3.3820469353043505e-06, 0., 0., 0., 0., 0., 0., 0., 0., 0.,
             0., 0., 0., 0., 0., 0., 0., 0., 0., 0., 0., 0., 0., 0., 0.,
             0., 0., 0., 0., 0., 0., 0., 0., 0., 0., 0., 0., 0., 0., 0.,
             0., 0., 0., 0., 0., 0., 0., 0., 0., 0., 0., 0., 0., 0., 0.,
             0., 0., 0., 0., 0., 0., 0., 0., 0., 0., 0., 0., 0., 0., 0.,
             0., 0., 0., 0., 0., 0., 0., 0., 0., 0., 0., 0., 0., 0., 0.,
             0., 0., 0., 0., 0., 0., 0., 0., 0., 0., 0., 0., 0., 0., 0.,
             0., 0., 0., 0., 0., 0., 0., 0., 0., 0., 0., 0., 0., 0., 0.,
             0., 0., 0., 0., 0., 0., 0., 0., 0., 0., 0., 0., 0., 0., 0.,
             0., 0., 0., 0., 0., 0., 0., 0., 0., 0., 0., 0., 0., 0., 0.,
             0., 0., 0., 0., 0., 0., 0., 0., 0., 0., 0., 0., 0., 0., 0.,
             0., 0., 0., 0., 0., 0., 0., 0., 0., 0., 0., 0., 0., 0., 0.,
             0., 0., 0., 0., 0., 0., 0., 0., 0., 0., 0., 0., 0., 0., 0.,
             0., 0., 0., 0., 0., 0., 0., 0., 0., 0., 0., 0., 0., 0., 0.,
             0., 0., 0., 0., 0., 0., 0., 0., 0., 0., 0., 0., 0., 0., 0.,
             0., 0., 0., 0., 0., 0., 0., 0., 0., 0., 0., 0., 0., 0., 0.,
             0., 0., 0., 0., 0., 0., 0., 0., 0., 0., 0., 0., 0., 0., 0.,
             0., 0., 0., 0., 0., 0., 0., 0., 0., 0., 0., 0., 0., 0., 0.,
             0., 0., 0., 0., 0., 0., 0., 0., 0., 0., 0., 0., 0., 0., 0.,
             0., 0., 0., 0., 0., 0., 0., 0., 0., 0., 0., 0., 0., 0., 0.,
             0., 0., 0., 0., 0., 0., 0., 0., 0., 0., 0., 0., 0., 0., 0.,
             0., 0., 0., 0., 0., 0., 0., 0., 0., 0., 0., 0., 0., 0., 0.,
             0., 0., 0., 0., 0., 0., 0., 0., 0., 0., 0., 0., 0., 0., 0.,
             0., 0., 0., 0., 0., 0., 0., 0., 0., 0., 0., 0., 0., 0., 0.,
             0., 0., 0., 0., 0., 0., 0., 0., 0., 0., 0., 0., 0., 0., 0.,
             0., 0., 0., 0., 0., 0., 0., 0., 0., 0., 0., 0., 0., 0., 0.,
             0., 0., 0., 0., 0., 0., 0., 0., 0., 0., 0., 0., 0., 0., 0.,
             0., 0., 0., 0., 0., 0., 0., 0., 0., 0., 0., 0., 0., 0., 0.,
             0., 0., 0., 0., 0., 0., 0., 0., 0., 0., 0., 0., 0., 0., 0.,
             0., 0., 0., 0., 0., 0., 0., 0., 0., 0., 0., 0., 0., 0., 0.,
             0., 0., 0., 0., 0., 0., 0., 0., 0., 0., 0., 0., 0., 0., 0.,
             0., 0., 0., 0., 0., 0., 0., 0., 0., 0., 0., 0., 0., 0., 0.,
             0., 0., 0., 0., 0., 0., 0., 0., 0., 0., 0., 0., 0., 0., 0.,
             0., 0., 0., 0., 0., 0., 0., 0., 0., 0., 0.,
             3.8231639525155970e-05, 0., 0., 0., 0., 0., 0., 0., 0., 0.,
             0., 0., 0., 0., 0., 0., 0., 0., 0., 0., 0., 0., 0., 0., 0.,
             0., 0., 0., 0., 0., 0., 0., 0., 0., 0., 0., 0., 0., 0., 0.,
             0., 0., 0., 0., 0., 0., 0., 0., 0., 0., 0., 0., 0., 0., 0.,
             0., 0., 0., 0., 0., 0., 0., 0., 0., 0., 0., 0., 0., 0., 0.,
             0., 0., 0., 0., 0., 0., 0., 0., 0., 0., 0., 0., 0., 0., 0.,
             0., 0., 0., 0., 0., 0., 0., 0., 0., 0., 0., 0., 0., 0., 0.,
             0., 0., 0., 0., 0., 0., 0., 0., 0., 0., 0., 0., 0., 0., 0.,
             0., 0., 0., 0., 0., 0., 0., 0., 0., 0., 0., 0., 0., 0., 0.,
             0., 0., 0., 0., 0., 0., 0., 0., 0., 0., 0., 0., 0., 0., 0.,
             0., 0., 0., 0., 0., 0., 0., 0., 0., 0., 0., 0., 0., 0., 0.,
             0., 0., 0., 0., 0., 0., 0., 0., 0., 0., 0., 0., 0., 0., 0.,
             0., 0., 0., 0., 0., 0., 0., 0., 0., 0., 0., 0., 0., 0., 0.,
             0., 0., 0., 0., 0., 0., 0., 0., 0., 0., 0., 0., 0., 0., 0.,
             0., 0., 0., 0., 0., 0., 0., 0., 0., 0., 0., 0., 0., 0., 0.,
             0., 0., 0., 0., 0., 0., 0., 0., 0., 0., 0., 0., 0., 0., 0.,
             0., 0., 0., 0., 0., 0., 0., 0., 0., 0., 0., 0., 0., 0., 0.,
             0., 0., 0., 0., 0., 0., 0., 0., 0., 0., 0., 0., 0., 0., 0.,
             0., 0., 0., 0., 0., 0., 0., 0., 0., 0., 0., 0., 0., 0., 0.,
             0., 0., 0., 0., 0., 0., 0., 0., 0., 0., 0., 0., 0., 0., 0.,
             0., 0., 0., 0., 0., 0., 0., 0., 0., 0., 0., 0., 0., 0., 0.,
             0., 0., 0., 0., 0., 0., 0., 0., 0., 0., 0., 0., 0., 0., 0.,
             0., 0., 0., 0., 0., 0., 0., 0., 0., 0., 0., 0., 0., 0., 0.,
             0., 0., 0., 0., 0., 0., 0., 0., 0., 0., 0., 0., 0., 0., 0.,
             0., 0., 0., 0., 0., 0., 0., 0., 0., 0., 0., 0., 0., 0., 0.,
             0., 0., 0., 0., 0., 0., 0., 0., 0., 0., 0., 0., 0., 0., 0.,
             0., 0., 0., 0., 0., 0., 0., 0., 0., 0., 0., 0., 0., 0., 0.,
             0., 0., 0., 0., 0., 0., 0., 0., 0., 0., 0., 0., 0., 0., 0.,
             0., 0., 0., 0., 0., 0., 0., 0., 0., 0., 0., 0., 0., 0., 0.,
             0., 0., 0., 0., 0., 0., 0., 0., 0., 0., 0., 0., 0., 0., 0.,
             0., 0., 0., 0., 0., 0., 0., 0., 0., 0., 0., 0., 0., 0., 0.,
             0., 0., 0., 0., 0., 0., 0., 0., 0., 0., 0., 0., 0., 0., 0.,
             0., 0., 0., 0., 0., 0., 0., 0., 0., 0., 0., 0., 0., 0., 0.,
             0., 0., 0., 0., 0., 0., 0., 0., 0., 0., 0.,
             2.9327442255250232e-05, 0., 0., 0., 0., 0., 0., 0., 0., 0.,
             0., 0., 0., 0., 0., 0., 0., 0., 0., 0., 0., 0., 0., 0., 0.,
             0., 0., 0., 0., 0., 0., 0., 0., 0., 0., 0., 0., 0., 0., 0.,
             0., 0., 0., 0., 0., 0., 0., 0., 0., 0., 0., 0., 0., 0., 0.,
             0., 0., 0., 0., 0., 0., 0., 0., 0., 0., 0., 0., 0., 0., 0.,
             0., 0., 0., 0., 0., 0., 0., 0., 0., 0., 0., 0., 0., 0., 0.,
             0., 0., 0., 0., 0., 0., 0., 0., 0., 0., 0., 0., 0., 0., 0.,
             0., 0., 0., 0., 0., 0., 0., 0., 0., 0., 0., 0., 0., 0., 0.,
             0., 0., 0., 0., 0., 0., 0., 0., 0., 0., 0., 0., 0., 0., 0.,
             0., 0., 0., 0., 0., 0., 0., 0., 0., 0., 0., 0., 0., 0., 0.,
             0., 0., 0., 0., 0., 0., 0., 0., 0., 0., 0., 0., 0., 0., 0.,
             0., 0., 0., 0., 0., 0., 0., 0., 0., 0., 0., 0., 0., 0., 0.,
             0., 0., 0., 0., 0., 0., 0., 0., 0., 0., 0., 0., 0., 0., 0.,
             0., 0., 0., 0., 0., 0., 0., 0., 0., 0., 0., 0., 0., 0., 0.,
             0., 0., 0., 0., 0., 0., 0., 0., 0., 0., 0., 0., 0., 0., 0.,
             0., 0., 0., 0., 0., 0., 0., 0., 0., 0., 0., 0., 0., 0., 0.,
             0., 0., 0., 0., 0., 0., 0., 0., 0., 0., 0., 0., 0., 0., 0.,
             0., 0., 0., 0., 0., 0., 0., 0., 0., 0., 0., 0., 0., 0., 0.,
             0., 0., 0., 0., 0., 0., 0., 0., 0., 0., 0., 0., 0., 0., 0.,
             0., 0., 0., 0., 0., 0., 0., 0., 0., 0., 0., 0., 0., 0., 0.,
             0., 0., 0., 0., 0., 0., 0., 0., 0., 0., 0., 0., 0., 0., 0.,
             0., 0., 0., 0., 0., 0., 0., 0., 0., 0., 0., 0., 0., 0., 0.,
             0., 0., 0., 0., 0., 0., 0., 0., 0., 0., 0., 0., 0., 0., 0.,
             0., 0., 0., 0., 0., 0., 0., 0., 0., 0., 0., 0., 0., 0., 0.,
             0., 0., 0., 0., 0., 0., 0., 0., 0., 0., 0., 0., 0., 0., 0.,
             0., 0., 0., 0., 0., 0., 0., 0., 0., 0., 0., 0., 0., 0., 0.,
             0., 0., 0., 0., 0., 0., 0., 0., 0., 0., 0., 0., 0., 0., 0.,
             0., 0., 0., 0., 0., 0., 0., 0., 0., 0., 0., 0., 0., 0., 0.,
             0., 0., 0., 0., 0., 0., 0., 0., 0., 0., 0., 0., 0., 0., 0.,
             0., 0., 0., 0., 0., 0., 0., 0., 0., 0., 0., 0., 0., 0., 0.,
             0., 0., 0., 0., 0., 0., 0., 0., 0., 0., 0., 0., 0., 0., 0.,
             0., 0., 0., 0., 0., 0., 0., 0., 0., 0., 0., 0., 0., 0., 0.,
             0., 0., 0., 0., 0., 0., 0., 0., 0., 0., 0., 0., 0., 0., 0.,
             0., 0., 0., 0., 0., 0., 0., 0., 0., 0., 0.,
             9.9957181785245442e-06, 0., 0., 0., 0., 0., 0., 0., 0., 0.,
             0., 0., 0., 0., 0., 0., 0., 0., 0., 0., 0., 0., 0., 0., 0.,
             0., 0., 0., 0., 0., 0., 0., 0., 0., 0., 0., 0., 0., 0., 0.,
             0., 0., 0., 0., 0., 0., 0., 0., 0., 0., 0., 0., 0., 0., 0.,
             0., 0., 0., 0., 0., 0., 0., 0., 0., 0., 0., 0., 0., 0., 0.,
             0., 0., 0., 0., 0., 0., 0., 0., 0., 0., 0., 0., 0., 0., 0.,
             0., 0., 0., 0., 0., 0., 0., 0., 0., 0., 0., 0., 0., 0., 0.,
             0., 0., 0., 0., 0., 0., 0., 0., 0., 0., 0., 0., 0., 0., 0.,
             0., 0., 0., 0., 0., 0., 0., 0., 0., 0., 0., 0., 0., 0., 0.,
             0., 0., 0., 0., 0., 0., 0., 0., 0., 0., 0., 0., 0., 0., 0.,
             0., 0., 0., 0., 0., 0., 0., 0., 0., 0., 0., 0., 0., 0., 0.,
             0., 0., 0., 0., 0., 0., 0., 0., 0., 0., 0., 0., 0., 0., 0.,
             0., 0., 0., 0., 0., 0., 0., 0., 0., 0., 0., 0., 0., 0., 0.,
             0., 0., 0., 0., 0., 0., 0., 0., 0., 0., 0., 0., 0., 0., 0.,
             0., 0., 0., 0., 0., 0., 0., 0., 0., 0., 0., 0., 0., 0., 0.,
             0., 0., 0., 0., 0., 0., 0., 0., 0., 0., 0., 0., 0., 0., 0.,
             0., 0., 0., 0., 0., 0., 0., 0., 0., 0., 0., 0., 0., 0., 0.,
             0., 0., 0., 0., 0., 0., 0., 0., 0., 0., 0., 0., 0., 0., 0.,
             0., 0., 0., 0., 0., 0., 0., 0., 0., 0., 0., 0., 0., 0., 0.,
             0., 0., 0., 0., 0., 0., 0., 0., 0., 0., 0., 0., 0., 0., 0.,
             0., 0., 0., 0., 0., 0., 0., 0., 0., 0., 0., 0., 0., 0., 0.,
             0., 0., 0., 0., 0., 0., 0., 0., 0., 0., 0., 0., 0., 0., 0.,
             0., 0., 0., 0., 0., 0., 0., 0., 0., 0., 0., 0., 0., 0., 0.,
             0., 0., 0., 0., 0., 0., 0., 0., 0., 0., 0., 0., 0., 0., 0.,
             0., 0., 0., 0., 0., 0., 0., 0., 0., 0., 0., 0., 0., 0., 0.,
             0., 0., 0., 0., 0., 0., 0., 0., 0., 0., 0., 0., 0., 0., 0.,
             0., 0., 0., 0., 0., 0., 0., 0., 0., 0., 0., 0., 0., 0., 0.,
             0., 0., 0., 0., 0., 0., 0., 0., 0., 0., 0., 0., 0., 0., 0.,
             0., 0., 0., 0., 0., 0., 0., 0., 0., 0., 0., 0., 0., 0., 0.,
             0., 0., 0., 0., 0., 0., 0., 0., 0., 0., 0., 0., 0., 0., 0.,
             0., 0., 0., 0., 0., 0., 0., 0., 0., 0., 0., 0., 0., 0., 0.,
             0., 0., 0., 0., 0., 0., 0., 0., 0., 0., 0., 0., 0., 0., 0.,
             0., 0., 0., 0., 0., 0., 0., 0., 0., 0., 0., 0., 0., 0., 0.,
             0., 0., 0., 0., 0., 0., 0., 0., 0., 0., 0.,
             1.2474203168516956e-05, 0., 0., 0., 0., 0., 0., 0., 0., 0.,
             0., 0., 0., 0., 0., 0., 0., 0., 0., 0., 0., 0., 0., 0., 0.,
             0., 0., 0., 0., 0., 0., 0., 0., 0., 0., 0., 0., 0., 0., 0.,
             0., 0., 0., 0., 0., 0., 0., 0., 0., 0., 0., 0., 0., 0., 0.,
             0., 0., 0., 0., 0., 0., 0., 0., 0., 0., 0., 0., 0., 0., 0.,
             0., 0., 0., 0., 0., 0., 0., 0., 0., 0., 0., 0., 0., 0., 0.,
             0., 0., 0., 0., 0., 0., 0., 0., 0., 0., 0., 0., 0., 0., 0.,
             0., 0., 0., 0., 0., 0., 0., 0., 0., 0., 0., 0., 0., 0., 0.,
             0., 0., 0., 0., 0., 0., 0., 0., 0., 0., 0., 0., 0., 0., 0.,
             0., 0., 0., 0., 0., 0., 0., 0., 0., 0., 0., 0., 0., 0., 0.,
             0., 0., 0., 0., 0., 0., 0., 0., 0., 0., 0., 0., 0., 0., 0.,
             0., 0., 0., 0., 0., 0., 0., 0., 0., 0., 0., 0., 0., 0., 0.,
             0., 0., 0., 0., 0., 0., 0., 0., 0., 0., 0., 0., 0., 0., 0.,
             0., 0., 0., 0., 0., 0., 0., 0., 0., 0., 0., 0., 0., 0., 0.,
             0., 0., 0., 0., 0., 0., 0., 0., 0., 0., 0., 0., 0., 0., 0.,
             0., 0., 0., 0., 0., 0., 0., 0., 0., 0., 0., 0., 0., 0., 0.,
             0., 0., 0., 0., 0., 0., 0., 0., 0., 0., 0., 0., 0., 0., 0.,
             0., 0., 0., 0., 0., 0., 0., 0., 0., 0., 0., 0., 0., 0., 0.,
             0., 0., 0., 0., 0., 0., 0., 0., 0., 0., 0., 0., 0., 0., 0.,
             0., 0., 0., 0., 0., 0., 0., 0., 0., 0., 0., 0., 0., 0., 0.,
             0., 0., 0., 0., 0., 0., 0., 0., 0., 0., 0., 0., 0., 0., 0.,
             0., 0., 0., 0., 0., 0., 0., 0., 0., 0., 0., 0., 0., 0., 0.,
             0., 0., 0., 0., 0., 0., 0., 0., 0., 0., 0., 0., 0., 0., 0.,
             0., 0., 0., 0., 0., 0., 0., 0., 0., 0., 0., 0., 0., 0., 0.,
             0., 0., 0., 0., 0., 0., 0., 0., 0., 0., 0., 0., 0., 0., 0.,
             0., 0., 0., 0., 0., 0., 0., 0., 0., 0., 0., 0., 0., 0., 0.,
             0., 0., 0., 0., 0., 0., 0., 0., 0., 0., 0., 0., 0., 0., 0.,
             0., 0., 0., 0., 0., 0., 0., 0., 0., 0., 0., 0., 0., 0., 0.,
             0., 0., 0., 0., 0., 0., 0., 0., 0., 0., 0., 0., 0., 0., 0.,
             0., 0., 0., 0., 0., 0., 0., 0., 0., 0., 0., 0., 0., 0., 0.,
             0., 0., 0., 0., 0., 0., 0., 0., 0., 0., 0., 0., 0., 0., 0.,
             0., 0., 0., 0., 0., 0., 0., 0., 0., 0., 0., 0., 0., 0., 0.,
             0., 0., 0., 0., 0., 0., 0., 0., 0., 0., 0., 0., 0., 0., 0.,
             0., 0., 0., 0., 0., 0., 0., 0., 0., 0., 0.,
             1.9479908504830771e-05, 0., 0., 0., 0., 0., 0., 0., 0., 0.,
             0., 0., 0., 0., 0., 0., 0., 0., 0., 0., 0., 0., 0., 0., 0.,
             0., 0., 0., 0., 0., 0., 0., 0., 0., 0., 0., 0., 0., 0., 0.,
             0., 0., 0., 0., 0., 0., 0., 0., 0., 0., 0., 0., 0., 0., 0.,
             0., 0., 0., 0., 0., 0., 0., 0., 0., 0., 0., 0., 0., 0., 0.,
             0., 0., 0., 0., 0., 0., 0., 0., 0., 0., 0., 0., 0., 0., 0.,
             0., 0., 0., 0., 0., 0., 0., 0., 0., 0., 0., 0., 0., 0., 0.,
             0., 0., 0., 0., 0., 0., 0., 0., 0., 0., 0., 0., 0., 0., 0.,
             0., 0., 0., 0., 0., 0., 0., 0., 0., 0., 0., 0., 0., 0., 0.,
             0., 0., 0., 0., 0., 0., 0., 0., 0., 0., 0., 0., 0., 0., 0.,
             0., 0., 0., 0., 0., 0., 0., 0., 0., 0., 0., 0., 0., 0., 0.,
             0., 0., 0., 0., 0., 0., 0., 0., 0., 0., 0., 0., 0., 0., 0.,
             0., 0., 0., 0., 0., 0., 0., 0., 0., 0., 0., 0., 0., 0., 0.,
             0., 0., 0., 0., 0., 0., 0., 0., 0., 0., 0., 0., 0., 0., 0.,
             0., 0., 0., 0., 0., 0., 0., 0., 0., 0., 0., 0., 0., 0., 0.,
             0., 0., 0., 0., 0., 0., 0., 0., 0., 0., 0., 0., 0., 0., 0.,
             0., 0., 0., 0., 0., 0., 0., 0., 0., 0., 0., 0., 0., 0., 0.,
             0., 0., 0., 0., 0., 0., 0., 0., 0., 0., 0., 0., 0., 0., 0.,
             0., 0., 0., 0., 0., 0., 0., 0., 0., 0., 0., 0., 0., 0., 0.,
             0., 0., 0., 0., 0., 0., 0., 0., 0., 0., 0., 0., 0., 0., 0.,
             0., 0., 0., 0., 0., 0., 0., 0., 0., 0., 0., 0., 0., 0., 0.,
             0., 0., 0., 0., 0., 0., 0., 0., 0., 0., 0., 0., 0., 0., 0.,
             0., 0., 0., 0., 0., 0., 0., 0., 0., 0., 0., 0., 0., 0., 0.,
             0., 0., 0., 0., 0., 0., 0., 0., 0., 0., 0., 0., 0., 0., 0.,
             0., 0., 0., 0., 0., 0., 0., 0., 0., 0., 0., 0., 0., 0., 0.,
             0., 0., 0., 0., 0., 0., 0., 0., 0., 0., 0., 0., 0., 0., 0.,
             0., 0., 0., 0., 0., 0., 0., 0., 0., 0., 0., 0., 0., 0., 0.,
             0., 0., 0., 0., 0., 0., 0., 0., 0., 0., 0., 0., 0., 0., 0.,
             0., 0., 0., 0., 0., 0., 0., 0., 0., 0., 0., 0., 0., 0., 0.,
             0., 0., 0., 0., 0., 0., 0., 0., 0., 0., 0., 0., 0., 0., 0.,
             0., 0., 0., 0., 0., 0., 0., 0., 0., 0., 0., 0., 0., 0., 0.,
             0., 0., 0., 0., 0., 0., 0., 0., 0., 0., 0., 0., 0., 0., 0.,
             0., 0., 0., 0., 0., 0., 0., 0., 0., 0., 0., 0., 0., 0., 0.,
             0., 0., 0., 0., 0., 0., 0., 0., 0., 0., 0.,
             4.1113399066612903e-05, 0., 0., 0., 0., 0., 0., 0., 0., 0.,
             0., 0., 0., 0., 0., 0., 0., 0., 0., 0., 0., 0., 0., 0., 0.,
             0., 0., 0., 0., 0., 0., 0., 0., 0., 0., 0., 0., 0., 0., 0.,
             0., 0., 0., 0., 0., 0., 0., 0., 0., 0., 0., 0., 0., 0., 0.,
             0., 0., 0., 0., 0., 0., 0., 0., 0., 0., 0., 0., 0., 0., 0.,
             0., 0., 0., 0., 0., 0., 0., 0., 0., 0., 0., 0., 0., 0., 0.,
             0., 0., 0., 0., 0., 0., 0., 0., 0., 0., 0., 0., 0., 0., 0.,
             0., 0., 0., 0., 0., 0., 0., 0., 0., 0., 0., 0., 0., 0., 0.,
             0., 0., 0., 0., 0., 0., 0., 0., 0., 0., 0., 0., 0., 0., 0.,
             0., 0., 0., 0., 0., 0., 0., 0., 0., 0., 0., 0., 0., 0., 0.,
             0., 0., 0., 0., 0., 0., 0., 0., 0., 0., 0., 0., 0., 0., 0.,
             0., 0., 0., 0., 0., 0., 0., 0., 0., 0., 0., 0., 0., 0., 0.,
             0., 0., 0., 0., 0., 0., 0., 0., 0., 0., 0., 0., 0., 0., 0.,
             0., 0., 0., 0., 0., 0., 0., 0., 0., 0., 0., 0., 0., 0., 0.,
             0., 0., 0., 0., 0., 0., 0., 0., 0., 0., 0., 0., 0., 0., 0.,
             0., 0., 0., 0., 0., 0., 0., 0., 0., 0., 0., 0., 0., 0., 0.,
             0., 0., 0., 0., 0., 0., 0., 0., 0., 0., 0., 0., 0., 0., 0.,
             0., 0., 0., 0., 0., 0., 0., 0., 0., 0., 0., 0., 0., 0., 0.,
             0., 0., 0., 0., 0., 0., 0., 0., 0., 0., 0., 0., 0., 0., 0.,
             0., 0., 0., 0., 0., 0., 0., 0., 0., 0., 0., 0., 0., 0., 0.,
             0., 0., 0., 0., 0., 0., 0., 0., 0., 0., 0., 0., 0., 0., 0.,
             0., 0., 0., 0., 0., 0., 0., 0., 0., 0., 0., 0., 0., 0., 0.,
             0., 0., 0., 0., 0., 0., 0., 0., 0., 0., 0., 0., 0., 0., 0.,
             0., 0., 0., 0., 0., 0., 0., 0., 0., 0., 0., 0., 0., 0., 0.,
             0., 0., 0., 0., 0., 0., 0., 0., 0., 0., 0., 0., 0., 0., 0.,
             0., 0., 0., 0., 0., 0., 0., 0., 0., 0., 0., 0., 0., 0., 0.,
             0., 0., 0., 0., 0., 0., 0., 0., 0., 0., 0., 0., 0., 0., 0.,
             0., 0., 0., 0., 0., 0., 0., 0., 0., 0., 0., 0., 0., 0., 0.,
             0., 0., 0., 0., 0., 0., 0., 0., 0., 0., 0., 0., 0., 0., 0.,
             0., 0., 0., 0., 0., 0., 0., 0., 0., 0., 0., 0., 0., 0., 0.,
             0., 0., 0., 0., 0., 0., 0., 0., 0., 0., 0., 0., 0., 0., 0.,
             0., 0., 0., 0., 0., 0., 0., 0., 0., 0., 0., 0., 0., 0., 0.,
             0., 0., 0., 0., 0., 0., 0., 0., 0., 0., 0., 0., 0., 0., 0.,
             0., 0., 0., 0., 0., 0., 0., 0., 0., 0., 0.,
             5.0102561276325733e-05, 0., 0., 0., 0., 0., 0., 0., 0., 0.,
             0., 0., 0., 0., 0., 0., 0., 0., 0., 0., 0., 0., 0., 0., 0.,
             0., 0., 0., 0., 0., 0., 0., 0., 0., 0., 0., 0., 0., 0., 0.,
             0., 0., 0., 0., 0., 0., 0., 0., 0., 0., 0., 0., 0., 0., 0.,
             0., 0., 0., 0., 0., 0., 0., 0., 0., 0., 0., 0., 0., 0., 0.,
             0., 0., 0., 0., 0., 0., 0., 0., 0., 0., 0., 0., 0., 0., 0.,
             0., 0., 0., 0., 0., 0., 0., 0., 0., 0., 0., 0., 0., 0., 0.,
             0., 0., 0., 0., 0., 0., 0., 0., 0., 0., 0., 0., 0., 0., 0.,
             0., 0., 0., 0., 0., 0., 0., 0., 0., 0., 0., 0., 0., 0., 0.,
             0., 0., 0., 0., 0., 0., 0., 0., 0., 0., 0., 0., 0., 0., 0.,
             0., 0., 0., 0., 0., 0., 0., 0., 0., 0., 0., 0., 0., 0., 0.,
             0., 0., 0., 0., 0., 0., 0., 0., 0., 0., 0., 0., 0., 0., 0.,
             0., 0., 0., 0., 0., 0., 0., 0., 0., 0., 0., 0., 0., 0., 0.,
             0., 0., 0., 0., 0., 0., 0., 0., 0., 0., 0., 0., 0., 0., 0.,
             0., 0., 0., 0., 0., 0., 0., 0., 0., 0., 0., 0., 0., 0., 0.,
             0., 0., 0., 0., 0., 0., 0., 0., 0., 0., 0., 0., 0., 0., 0.,
             0., 0., 0., 0., 0., 0., 0., 0., 0., 0., 0., 0., 0., 0., 0.,
             0., 0., 0., 0., 0., 0., 0., 0., 0., 0., 0., 0., 0., 0., 0.,
             0., 0., 0., 0., 0., 0., 0., 0., 0., 0., 0., 0., 0., 0., 0.,
             0., 0., 0., 0., 0., 0., 0., 0., 0., 0., 0., 0., 0., 0., 0.,
             0., 0., 0., 0., 0., 0., 0., 0., 0., 0., 0., 0., 0., 0., 0.,
             0., 0., 0., 0., 0., 0., 0., 0., 0., 0., 0., 0., 0., 0., 0.,
             0., 0., 0., 0., 0., 0., 0., 0., 0., 0., 0., 0., 0., 0., 0.,
             0., 0., 0., 0., 0., 0., 0., 0., 0., 0., 0., 0., 0., 0., 0.,
             0., 0., 0., 0., 0., 0., 0., 0., 0., 0., 0., 0., 0., 0., 0.,
             0., 0., 0., 0., 0., 0., 0., 0., 0., 0., 0., 0., 0., 0., 0.,
             0., 0., 0., 0., 0., 0., 0., 0., 0., 0., 0., 0., 0., 0., 0.,
             0., 0., 0., 0., 0., 0., 0., 0., 0., 0., 0., 0., 0., 0., 0.,
             0., 0., 0., 0., 0., 0., 0., 0., 0., 0., 0., 0., 0., 0., 0.,
             0., 0., 0., 0., 0., 0., 0., 0., 0., 0., 0., 0., 0., 0., 0.,
             0., 0., 0., 0., 0., 0., 0., 0., 0., 0., 0., 0., 0., 0., 0.,
             0., 0., 0., 0., 0., 0., 0., 0., 0., 0., 0., 0., 0., 0., 0.,
             0., 0., 0., 0., 0., 0., 0., 0., 0., 0., 0., 0., 0., 0., 0.,
             0., 0., 0., 0., 0., 0., 0., 0., 0., 0., 0.,
             6.5774638003393264e-05, 0., 0., 0., 0., 0., 0., 0., 0., 0.,
             0., 0., 0., 0., 0., 0., 0., 0., 0., 0., 0., 0., 0., 0., 0.,
             0., 0., 0., 0., 0., 0., 0., 0., 0., 0., 0., 0., 0., 0., 0.,
             0., 0., 0., 0., 0., 0., 0., 0., 0., 0., 0., 0., 0., 0., 0.,
             0., 0., 0., 0., 0., 0., 0., 0., 0., 0., 0., 0., 0., 0., 0.,
             0., 0., 0., 0., 0., 0., 0., 0., 0., 0., 0., 0., 0., 0., 0.,
             0., 0., 0., 0., 0., 0., 0., 0., 0., 0., 0., 0., 0., 0., 0.,
             0., 0., 0., 0., 0., 0., 0., 0., 0., 0., 0., 0., 0., 0., 0.,
             0., 0., 0., 0., 0., 0., 0., 0., 0., 0., 0., 0., 0., 0., 0.,
             0., 0., 0., 0., 0., 0., 0., 0., 0., 0., 0., 0., 0., 0., 0.,
             0., 0., 0., 0., 0., 0., 0., 0., 0., 0., 0., 0., 0., 0., 0.,
             0., 0., 0., 0., 0., 0., 0., 0., 0., 0., 0., 0., 0., 0., 0.,
             0., 0., 0., 0., 0., 0., 0., 0., 0., 0., 0., 0., 0., 0., 0.,
             0., 0., 0., 0., 0., 0., 0., 0., 0., 0., 0., 0., 0., 0., 0.,
             0., 0., 0., 0., 0., 0., 0., 0., 0., 0., 0., 0., 0., 0., 0.,
             0., 0., 0., 0., 0., 0., 0., 0., 0., 0., 0., 0., 0., 0., 0.,
             0., 0., 0., 0., 0., 0., 0., 0., 0., 0., 0., 0., 0., 0., 0.,
             0., 0., 0., 0., 0., 0., 0., 0., 0., 0., 0., 0., 0., 0., 0.,
             0., 0., 0., 0., 0., 0., 0., 0., 0., 0., 0., 0., 0., 0., 0.,
             0., 0., 0., 0., 0., 0., 0., 0., 0., 0., 0., 0., 0., 0., 0.,
             0., 0., 0., 0., 0., 0., 0., 0., 0., 0., 0., 0., 0., 0., 0.,
             0., 0., 0., 0., 0., 0., 0., 0., 0., 0., 0., 0., 0., 0., 0.,
             0., 0., 0., 0., 0., 0., 0., 0., 0., 0., 0., 0., 0., 0., 0.,
             0., 0., 0., 0., 0., 0., 0., 0., 0., 0., 0., 0., 0., 0., 0.,
             0., 0., 0., 0., 0., 0., 0., 0., 0., 0., 0., 0., 0., 0., 0.,
             0., 0., 0., 0., 0., 0., 0., 0., 0., 0., 0., 0., 0., 0., 0.,
             0., 0., 0., 0., 0., 0., 0., 0., 0., 0., 0., 0., 0., 0., 0.,
             0., 0., 0., 0., 0., 0., 0., 0., 0., 0., 0., 0., 0., 0., 0.,
             0., 0., 0., 0., 0., 0., 0., 0., 0., 0., 0., 0., 0., 0., 0.,
             0., 0., 0., 0., 0., 0., 0., 0., 0., 0., 0., 0., 0., 0., 0.,
             0., 0., 0., 0., 0., 0., 0., 0., 0., 0., 0., 0., 0., 0., 0.,
             0., 0., 0., 0., 0., 0., 0., 0., 0., 0., 0., 0., 0., 0., 0.,
             0., 0., 0., 0., 0., 0., 0., 0., 0., 0., 0., 0., 0., 0., 0.,
             0., 0., 0., 0., 0., 0., 0., 0., 0., 0., 0.,
             1.6365771456263898e-05, 0., 0., 0., 0., 0., 0., 0., 0., 0.,
             0., 0., 0., 0., 0., 0., 0., 0., 0., 0., 0., 0., 0., 0., 0.,
             0., 0., 0., 0., 0., 0., 0., 0., 0., 0., 0., 0., 0., 0., 0.,
             0., 0., 0., 0., 0., 0., 0., 0., 0., 0., 0., 0., 0., 0., 0.,
             0., 0., 0., 0., 0., 0., 0., 0., 0., 0., 0., 0., 0., 0., 0.,
             0., 0., 0., 0., 0., 0., 0., 0., 0., 0., 0., 0., 0., 0., 0.,
             0., 0., 0., 0., 0., 0., 0., 0., 0., 0., 0., 0., 0., 0., 0.,
             0., 0., 0., 0., 0., 0., 0., 0., 0., 0., 0., 0., 0., 0., 0.,
             0., 0., 0., 0., 0., 0., 0., 0., 0., 0., 0., 0., 0., 0., 0.,
             0., 0., 0., 0., 0., 0., 0., 0., 0., 0., 0., 0., 0., 0., 0.,
             0., 0., 0., 0., 0., 0., 0., 0., 0., 0., 0., 0., 0., 0., 0.,
             0., 0., 0., 0., 0., 0., 0., 0., 0., 0., 0., 0., 0., 0., 0.,
             0., 0., 0., 0., 0., 0., 0., 0., 0., 0., 0., 0., 0., 0., 0.,
             0., 0., 0., 0., 0., 0., 0., 0., 0., 0., 0., 0., 0., 0., 0.,
             0., 0., 0., 0., 0., 0., 0., 0., 0., 0., 0., 0., 0., 0., 0.,
             0., 0., 0., 0., 0., 0., 0., 0., 0., 0., 0., 0., 0., 0., 0.,
             0., 0., 0., 0., 0., 0., 0., 0., 0., 0., 0., 0., 0., 0., 0.,
             0., 0., 0., 0., 0., 0., 0., 0., 0., 0., 0., 0., 0., 0., 0.,
             0., 0., 0., 0., 0., 0., 0., 0., 0., 0., 0., 0., 0., 0., 0.,
             0., 0., 0., 0., 0., 0., 0., 0., 0., 0., 0., 0., 0., 0., 0.,
             0., 0., 0., 0., 0., 0., 0., 0., 0., 0., 0., 0., 0., 0., 0.,
             0., 0., 0., 0., 0., 0., 0., 0., 0., 0., 0., 0., 0., 0., 0.,
             0., 0., 0., 0., 0., 0., 0., 0., 0., 0., 0., 0., 0., 0., 0.,
             0., 0., 0., 0., 0., 0., 0., 0., 0., 0., 0., 0., 0., 0., 0.,
             0., 0., 0., 0., 0., 0., 0., 0., 0., 0., 0., 0., 0., 0., 0.,
             0., 0., 0., 0., 0., 0., 0., 0., 0., 0., 0., 0., 0., 0., 0.,
             0., 0., 0., 0., 0., 0., 0., 0., 0., 0., 0., 0., 0., 0., 0.,
             0., 0., 0., 0., 0., 0., 0., 0., 0., 0., 0., 0., 0., 0., 0.,
             0., 0., 0., 0., 0., 0., 0., 0., 0., 0., 0., 0., 0., 0., 0.,
             0., 0., 0., 0., 0., 0., 0., 0., 0., 0., 0., 0., 0., 0., 0.,
             0., 0., 0., 0., 0., 0., 0., 0., 0., 0., 0., 0., 0., 0., 0.,
             0., 0., 0., 0., 0., 0., 0., 0., 0., 0., 0., 0., 0., 0., 0.,
             0., 0., 0., 0., 0., 0., 0., 0., 0., 0., 0., 0., 0., 0., 0.,
             0., 0., 0., 0., 0., 0., 0., 0., 0., 0., 0.,
             1.3072795398107151e-05, 0., 0., 0., 0., 0., 0., 0., 0., 0.,
             0., 0., 0., 0., 0., 0., 0., 0., 0., 0., 0., 0., 0., 0., 0.,
             0., 0., 0., 0., 0., 0., 0., 0., 0., 0., 0., 0., 0., 0., 0.,
             0., 0., 0., 0., 0., 0., 0., 0., 0., 0., 0., 0., 0., 0., 0.,
             0., 0., 0., 0., 0., 0., 0., 0., 0., 0., 0., 0., 0., 0., 0.,
             0., 0., 0., 0., 0., 0., 0., 0., 0., 0., 0., 0., 0., 0., 0.,
             0., 0., 0., 0., 0., 0., 0., 0., 0., 0., 0., 0., 0., 0., 0.,
             0., 0., 0., 0., 0., 0., 0., 0., 0., 0., 0., 0., 0., 0., 0.,
             0., 0., 0., 0., 0., 0., 0., 0., 0., 0., 0., 0., 0., 0., 0.,
             0., 0., 0., 0., 0., 0., 0., 0., 0., 0., 0., 0., 0., 0., 0.,
             0., 0., 0., 0., 0., 0., 0., 0., 0., 0., 0., 0., 0., 0., 0.,
             0., 0., 0., 0., 0., 0., 0., 0., 0., 0., 0., 0., 0., 0., 0.,
             0., 0., 0., 0., 0., 0., 0., 0., 0., 0., 0., 0., 0., 0., 0.,
             0., 0., 0., 0., 0., 0., 0., 0., 0., 0., 0., 0., 0., 0., 0.,
             0., 0., 0., 0., 0., 0., 0., 0., 0., 0., 0., 0., 0., 0., 0.,
             0., 0., 0., 0., 0., 0., 0., 0., 0., 0., 0., 0., 0., 0., 0.,
             0., 0., 0., 0., 0., 0., 0., 0., 0., 0., 0., 0., 0., 0., 0.,
             0., 0., 0., 0., 0., 0., 0., 0., 0., 0., 0., 0., 0., 0., 0.,
             0., 0., 0., 0., 0., 0., 0., 0., 0., 0., 0., 0., 0., 0., 0.,
             0., 0., 0., 0., 0., 0., 0., 0., 0., 0., 0., 0., 0., 0., 0.,
             0., 0., 0., 0., 0., 0., 0., 0., 0., 0., 0., 0., 0., 0., 0.,
             0., 0., 0., 0., 0., 0., 0., 0., 0., 0., 0., 0., 0., 0., 0.,
             0., 0., 0., 0., 0., 0., 0., 0., 0., 0., 0., 0., 0., 0., 0.,
             0., 0., 0., 0., 0., 0., 0., 0., 0., 0., 0., 0., 0., 0., 0.,
             0., 0., 0., 0., 0., 0., 0., 0., 0., 0., 0., 0., 0., 0., 0.,
             0., 0., 0., 0., 0., 0., 0., 0., 0., 0., 0., 0., 0., 0., 0.,
             0., 0., 0., 0., 0., 0., 0., 0., 0., 0., 0., 0., 0., 0., 0.,
             0., 0., 0., 0., 0., 0., 0., 0., 0., 0., 0., 0., 0., 0., 0.,
             0., 0., 0., 0., 0., 0., 0., 0., 0., 0., 0., 0., 0., 0., 0.,
             0., 0., 0., 0., 0., 0., 0., 0., 0., 0., 0., 0., 0., 0., 0.,
             0., 0., 0., 0., 0., 0., 0., 0., 0., 0., 0., 0., 0., 0., 0.,
             0., 0., 0., 0., 0., 0., 0., 0., 0., 0., 0., 0., 0., 0., 0.,
             0., 0., 0., 0., 0., 0., 0., 0., 0., 0., 0., 0., 0., 0., 0.,
             0., 0., 0., 0., 0., 0., 0., 0., 0., 0., 0.,
             2.6878141552778958e-05, 0., 0., 0., 0., 0., 0., 0., 0., 0.,
             0., 0., 0., 0., 0., 0., 0., 0., 0., 0., 0., 0., 0., 0., 0.,
             0., 0., 0., 0., 0., 0., 0., 0., 0., 0., 0., 0., 0., 0., 0.,
             0., 0., 0., 0., 0., 0., 0., 0., 0., 0., 0., 0., 0., 0., 0.,
             0., 0., 0., 0., 0., 0., 0., 0., 0., 0., 0., 0., 0., 0., 0.,
             0., 0., 0., 0., 0., 0., 0., 0., 0., 0., 0., 0., 0., 0., 0.,
             0., 0., 0., 0., 0., 0., 0., 0., 0., 0., 0., 0., 0., 0., 0.,
             0., 0., 0., 0., 0., 0., 0., 0., 0., 0., 0., 0., 0., 0., 0.,
             0., 0., 0., 0., 0., 0., 0., 0., 0., 0., 0., 0., 0., 0., 0.,
             0., 0., 0., 0., 0., 0., 0., 0., 0., 0., 0., 0., 0., 0., 0.,
             0., 0., 0., 0., 0., 0., 0., 0., 0., 0., 0., 0., 0., 0., 0.,
             0., 0., 0., 0., 0., 0., 0., 0., 0., 0., 0., 0., 0., 0., 0.,
             0., 0., 0., 0., 0., 0., 0., 0., 0., 0., 0., 0., 0., 0., 0.,
             0., 0., 0., 0., 0., 0., 0., 0., 0., 0., 0., 0., 0., 0., 0.,
             0., 0., 0., 0., 0., 0., 0., 0., 0., 0., 0., 0., 0., 0., 0.,
             0., 0., 0., 0., 0., 0., 0., 0., 0., 0., 0., 0., 0., 0., 0.,
             0., 0., 0., 0., 0., 0., 0., 0., 0., 0., 0., 0., 0., 0., 0.,
             0., 0., 0., 0., 0., 0., 0., 0., 0., 0., 0., 0., 0., 0., 0.,
             0., 0., 0., 0., 0., 0., 0., 0., 0., 0., 0., 0., 0., 0., 0.,
             0., 0., 0., 0., 0., 0., 0., 0., 0., 0., 0., 0., 0., 0., 0.,
             0., 0., 0., 0., 0., 0., 0., 0., 0., 0., 0., 0., 0., 0., 0.,
             0., 0., 0., 0., 0., 0., 0., 0., 0., 0., 0., 0., 0., 0., 0.,
             0., 0., 0., 0., 0., 0., 0., 0., 0., 0., 0., 0., 0., 0., 0.,
             0., 0., 0., 0., 0., 0., 0., 0., 0., 0., 0., 0., 0., 0., 0.,
             0., 0., 0., 0., 0., 0., 0., 0., 0., 0., 0., 0., 0., 0., 0.,
             0., 0., 0., 0., 0., 0., 0., 0., 0., 0., 0., 0., 0., 0., 0.,
             0., 0., 0., 0., 0., 0., 0., 0., 0., 0., 0., 0., 0., 0., 0.,
             0., 0., 0., 0., 0., 0., 0., 0., 0., 0., 0., 0., 0., 0., 0.,
             0., 0., 0., 0., 0., 0., 0., 0., 0., 0., 0., 0., 0., 0., 0.,
             0., 0., 0., 0., 0., 0., 0., 0., 0., 0., 0., 0., 0., 0., 0.,
             0., 0., 0., 0., 0., 0., 0., 0., 0., 0., 0., 0., 0., 0., 0.,
             0., 0., 0., 0., 0., 0., 0., 0., 0., 0., 0., 0., 0., 0., 0.,
             0., 0., 0., 0., 0., 0., 0., 0., 0., 0., 0., 0., 0., 0., 0.,
             0., 0., 0., 0., 0., 0., 0., 0., 0., 0., 0.,
             2.6622484077366737e-05, 0., 0., 0., 0., 0., 0., 0., 0., 0.,
             0., 0., 0., 0., 0., 0., 0., 0., 0., 0., 0., 0., 0., 0., 0.,
             0., 0., 0., 0., 0., 0., 0., 0., 0., 0., 0., 0., 0., 0., 0.,
             0., 0., 0., 0., 0., 0., 0., 0., 0., 0., 0., 0., 0., 0., 0.,
             0., 0., 0., 0., 0., 0., 0., 0., 0., 0., 0., 0., 0., 0., 0.,
             0., 0., 0., 0., 0., 0., 0., 0., 0., 0., 0., 0., 0., 0., 0.,
             0., 0., 0., 0., 0., 0., 0., 0., 0., 0., 0., 0., 0., 0., 0.,
             0., 0., 0., 0., 0., 0., 0., 0., 0., 0., 0., 0., 0., 0., 0.,
             0., 0., 0., 0., 0., 0., 0., 0., 0., 0., 0., 0., 0., 0., 0.,
             0., 0., 0., 0., 0., 0., 0., 0., 0., 0., 0., 0., 0., 0., 0.,
             0., 0., 0., 0., 0., 0., 0., 0., 0., 0., 0., 0., 0., 0., 0.,
             0., 0., 0., 0., 0., 0., 0., 0., 0., 0., 0., 0., 0., 0., 0.,
             0., 0., 0., 0., 0., 0., 0., 0., 0., 0., 0., 0., 0., 0., 0.,
             0., 0., 0., 0., 0., 0., 0., 0., 0., 0., 0., 0., 0., 0., 0.,
             0., 0., 0., 0., 0., 0., 0., 0., 0., 0., 0., 0., 0., 0., 0.,
             0., 0., 0., 0., 0., 0., 0., 0., 0., 0., 0., 0., 0., 0., 0.,
             0., 0., 0., 0., 0., 0., 0., 0., 0., 0., 0., 0., 0., 0., 0.,
             0., 0., 0., 0., 0., 0., 0., 0., 0., 0., 0., 0., 0., 0., 0.,
             0., 0., 0., 0., 0., 0., 0., 0., 0., 0., 0., 0., 0., 0., 0.,
             0., 0., 0., 0., 0., 0., 0., 0., 0., 0., 0., 0., 0., 0., 0.,
             0., 0., 0., 0., 0., 0., 0., 0., 0., 0., 0., 0., 0., 0., 0.,
             0., 0., 0., 0., 0., 0., 0., 0., 0., 0., 0., 0., 0., 0., 0.,
             0., 0., 0., 0., 0., 0., 0., 0., 0., 0., 0., 0., 0., 0., 0.,
             0., 0., 0., 0., 0., 0., 0., 0., 0., 0., 0., 0., 0., 0., 0.,
             0., 0., 0., 0., 0., 0., 0., 0., 0., 0., 0., 0., 0., 0., 0.,
             0., 0., 0., 0., 0., 0., 0., 0., 0., 0., 0., 0., 0., 0., 0.,
             0., 0., 0., 0., 0., 0., 0., 0., 0., 0., 0., 0., 0., 0., 0.,
             0., 0., 0., 0., 0., 0., 0., 0., 0., 0., 0., 0., 0., 0., 0.,
             0., 0., 0., 0., 0., 0., 0., 0., 0., 0., 0., 0., 0., 0., 0.,
             0., 0., 0., 0., 0., 0., 0., 0., 0., 0., 0., 0., 0., 0., 0.,
             0., 0., 0., 0., 0., 0., 0., 0., 0., 0., 0., 0., 0., 0., 0.,
             0., 0., 0., 0., 0., 0., 0., 0., 0., 0., 0., 0., 0., 0., 0.,
             0., 0., 0., 0., 0., 0., 0., 0., 0., 0., 0., 0., 0., 0., 0.,
             0., 0., 0., 0., 0., 0., 0., 0., 0., 0., 0.,
             3.5996203056492653e-05, 0., 0., 0., 0., 0., 0., 0., 0., 0.,
             0., 0., 0., 0., 0., 0., 0., 0., 0., 0., 0., 0., 0., 0., 0.,
             0., 0., 0., 0., 0., 0., 0., 0., 0., 0., 0., 0., 0., 0., 0.,
             0., 0., 0., 0., 0., 0., 0., 0., 0., 0., 0., 0., 0., 0., 0.,
             0., 0., 0., 0., 0., 0., 0., 0., 0., 0., 0., 0., 0., 0., 0.,
             0., 0., 0., 0., 0., 0., 0., 0., 0., 0., 0., 0., 0., 0., 0.,
             0., 0., 0., 0., 0., 0., 0., 0., 0., 0., 0., 0., 0., 0., 0.,
             0., 0., 0., 0., 0., 0., 0., 0., 0., 0., 0., 0., 0., 0., 0.,
             0., 0., 0., 0., 0., 0., 0., 0., 0., 0., 0., 0., 0., 0., 0.,
             0., 0., 0., 0., 0., 0., 0., 0., 0., 0., 0., 0., 0., 0., 0.,
             0., 0., 0., 0., 0., 0., 0., 0., 0., 0., 0., 0., 0., 0., 0.,
             0., 0., 0., 0., 0., 0., 0., 0., 0., 0., 0., 0., 0., 0., 0.,
             0., 0., 0., 0., 0., 0., 0., 0., 0., 0., 0., 0., 0., 0., 0.,
             0., 0., 0., 0., 0., 0., 0., 0., 0., 0., 0., 0., 0., 0., 0.,
             0., 0., 0., 0., 0., 0., 0., 0., 0., 0., 0., 0., 0., 0., 0.,
             0., 0., 0., 0., 0., 0., 0., 0., 0., 0., 0., 0., 0., 0., 0.,
             0., 0., 0., 0., 0., 0., 0., 0., 0., 0., 0., 0., 0., 0., 0.,
             0., 0., 0., 0., 0., 0., 0., 0., 0., 0., 0., 0., 0., 0., 0.,
             0., 0., 0., 0., 0., 0., 0., 0., 0., 0., 0., 0., 0., 0., 0.,
             0., 0., 0., 0., 0., 0., 0., 0., 0., 0., 0., 0., 0., 0., 0.,
             0., 0., 0., 0., 0., 0., 0., 0., 0., 0., 0., 0., 0., 0., 0.,
             0., 0., 0., 0., 0., 0., 0., 0., 0., 0., 0., 0., 0., 0., 0.,
             0., 0., 0., 0., 0., 0., 0., 0., 0., 0., 0., 0., 0., 0., 0.,
             0., 0., 0., 0., 0., 0., 0., 0., 0., 0., 0., 0., 0., 0., 0.,
             0., 0., 0., 0., 0., 0., 0., 0., 0., 0., 0., 0., 0., 0., 0.,
             0., 0., 0., 0., 0., 0., 0., 0., 0., 0., 0., 0., 0., 0., 0.,
             0., 0., 0., 0., 0., 0., 0., 0., 0., 0., 0., 0., 0., 0., 0.,
             0., 0., 0., 0., 0., 0., 0., 0., 0., 0., 0., 0., 0., 0., 0.,
             0., 0., 0., 0., 0., 0., 0., 0., 0., 0., 0., 0., 0., 0., 0.,
             0., 0., 0., 0., 0., 0., 0., 0., 0., 0., 0., 0., 0., 0., 0.,
             0., 0., 0., 0., 0., 0., 0., 0., 0., 0., 0., 0., 0., 0., 0.,
             0., 0., 0., 0., 0., 0., 0., 0., 0., 0., 0., 0., 0., 0., 0.,
             0., 0., 0., 0., 0., 0., 0., 0., 0., 0., 0., 0., 0., 0., 0.,
             0., 0., 0., 0., 0., 0., 0., 0., 0., 0., 0.,
             4.2073496731132462e-06, 0., 0., 0., 0., 0., 0., 0., 0., 0.,
             0., 0., 0., 0., 0., 0., 0., 0., 0., 0., 0., 0., 0., 0., 0.,
             0., 0., 0., 0., 0., 0., 0., 0., 0., 0., 0., 0., 0., 0., 0.,
             0., 0., 0., 0., 0., 0., 0., 0., 0., 0., 0., 0., 0., 0., 0.,
             0., 0., 0., 0., 0., 0., 0., 0., 0., 0., 0., 0., 0., 0., 0.,
             0., 0., 0., 0., 0., 0., 0., 0., 0., 0., 0., 0., 0., 0., 0.,
             0., 0., 0., 0., 0., 0., 0., 0., 0., 0., 0., 0., 0., 0., 0.,
             0., 0., 0., 0., 0., 0., 0., 0., 0., 0., 0., 0., 0., 0., 0.,
             0., 0., 0., 0., 0., 0., 0., 0., 0., 0., 0., 0., 0., 0., 0.,
             0., 0., 0., 0., 0., 0., 0., 0., 0., 0., 0., 0., 0., 0., 0.,
             0., 0., 0., 0., 0., 0., 0., 0., 0., 0., 0., 0., 0., 0., 0.,
             0., 0., 0., 0., 0., 0., 0., 0., 0., 0., 0., 0., 0., 0., 0.,
             0., 0., 0., 0., 0., 0., 0., 0., 0., 0., 0., 0., 0., 0., 0.,
             0., 0., 0., 0., 0., 0., 0., 0., 0., 0., 0., 0., 0., 0., 0.,
             0., 0., 0., 0., 0., 0., 0., 0., 0., 0., 0., 0., 0., 0., 0.,
             0., 0., 0., 0., 0., 0., 0., 0., 0., 0., 0., 0., 0., 0., 0.,
             0., 0., 0., 0., 0., 0., 0., 0., 0., 0., 0., 0., 0., 0., 0.,
             0., 0., 0., 0., 0., 0., 0., 0., 0., 0., 0., 0., 0., 0., 0.,
             0., 0., 0., 0., 0., 0., 0., 0., 0., 0., 0., 0., 0., 0., 0.,
             0., 0., 0., 0., 0., 0., 0., 0., 0., 0., 0., 0., 0., 0., 0.,
             0., 0., 0., 0., 0., 0., 0., 0., 0., 0., 0., 0., 0., 0., 0.,
             0., 0., 0., 0., 0., 0., 0., 0., 0., 0., 0., 0., 0., 0., 0.,
             0., 0., 0., 0., 0., 0., 0., 0., 0., 0., 0., 0., 0., 0., 0.,
             0., 0., 0., 0., 0., 0., 0., 0., 0., 0., 0., 0., 0., 0., 0.,
             0., 0., 0., 0., 0., 0., 0., 0., 0., 0., 0., 0., 0., 0., 0.,
             0., 0., 0., 0., 0., 0., 0., 0., 0., 0., 0., 0., 0., 0., 0.,
             0., 0., 0., 0., 0., 0., 0., 0., 0., 0., 0., 0., 0., 0., 0.,
             0., 0., 0., 0., 0., 0., 0., 0., 0., 0., 0., 0., 0., 0., 0.,
             0., 0., 0., 0., 0., 0., 0., 0., 0., 0., 0., 0., 0., 0., 0.,
             0., 0., 0., 0., 0., 0., 0., 0., 0., 0., 0., 0., 0., 0., 0.,
             0., 0., 0., 0., 0., 0., 0., 0., 0., 0., 0., 0., 0., 0., 0.,
             0., 0., 0., 0., 0., 0., 0., 0., 0., 0., 0., 0., 0., 0., 0.,
             0., 0., 0., 0., 0., 0., 0., 0., 0., 0., 0., 0., 0., 0., 0.,
             0., 0., 0., 0., 0., 0., 0., 0., 0., 0., 0.,
             2.0470808068200819e-05, 0., 0., 0., 0., 0., 0., 0., 0., 0.,
             0., 0., 0., 0., 0., 0., 0., 0., 0., 0., 0., 0., 0., 0., 0.,
             0., 0., 0., 0., 0., 0., 0., 0., 0., 0., 0., 0., 0., 0., 0.,
             0., 0., 0., 0., 0., 0., 0., 0., 0., 0., 0., 0., 0., 0., 0.,
             0., 0., 0., 0., 0., 0., 0., 0., 0., 0., 0., 0., 0., 0., 0.,
             0., 0., 0., 0., 0., 0., 0., 0., 0., 0., 0., 0., 0., 0., 0.,
             0., 0., 0., 0., 0., 0., 0., 0., 0., 0., 0., 0., 0., 0., 0.,
             0., 0., 0., 0., 0., 0., 0., 0., 0., 0., 0., 0., 0., 0., 0.,
             0., 0., 0., 0., 0., 0., 0., 0., 0., 0., 0., 0., 0., 0., 0.,
             0., 0., 0., 0., 0., 0., 0., 0., 0., 0., 0., 0., 0., 0., 0.,
             0., 0., 0., 0., 0., 0., 0., 0., 0., 0., 0., 0., 0., 0., 0.,
             0., 0., 0., 0., 0., 0., 0., 0., 0., 0., 0., 0., 0., 0., 0.,
             0., 0., 0., 0., 0., 0., 0., 0., 0., 0., 0., 0., 0., 0., 0.,
             0., 0., 0., 0., 0., 0., 0., 0., 0., 0., 0., 0., 0., 0., 0.,
             0., 0., 0., 0., 0., 0., 0., 0., 0., 0., 0., 0., 0., 0., 0.,
             0., 0., 0., 0., 0., 0., 0., 0., 0., 0., 0., 0., 0., 0., 0.,
             0., 0., 0., 0., 0., 0., 0., 0., 0., 0., 0., 0., 0., 0., 0.,
             0., 0., 0., 0., 0., 0., 0., 0., 0., 0., 0., 0., 0., 0., 0.,
             0., 0., 0., 0., 0., 0., 0., 0., 0., 0., 0., 0., 0., 0., 0.,
             0., 0., 0., 0., 0., 0., 0., 0., 0., 0., 0., 0., 0., 0., 0.,
             0., 0., 0., 0., 0., 0., 0., 0., 0., 0., 0., 0., 0., 0., 0.,
             0., 0., 0., 0., 0., 0., 0., 0., 0., 0., 0., 0., 0., 0., 0.,
             0., 0., 0., 0., 0., 0., 0., 0., 0., 0., 0., 0., 0., 0., 0.,
             0., 0., 0., 0., 0., 0., 0., 0., 0., 0., 0., 0., 0., 0., 0.,
             0., 0., 0., 0., 0., 0., 0., 0., 0., 0., 0., 0., 0., 0., 0.,
             0., 0., 0., 0., 0., 0., 0., 0., 0., 0., 0., 0., 0., 0., 0.,
             0., 0., 0., 0., 0., 0., 0., 0., 0., 0., 0., 0., 0., 0., 0.,
             0., 0., 0., 0., 0., 0., 0., 0., 0., 0., 0., 0., 0., 0., 0.,
             0., 0., 0., 0., 0., 0., 0., 0., 0., 0., 0., 0., 0., 0., 0.,
             0., 0., 0., 0., 0., 0., 0., 0., 0., 0., 0., 0., 0., 0., 0.,
             0., 0., 0., 0., 0., 0., 0., 0., 0., 0., 0., 0., 0., 0., 0.,
             0., 0., 0., 0., 0., 0., 0., 0., 0., 0., 0., 0., 0., 0., 0.,
             0., 0., 0., 0., 0., 0., 0., 0., 0., 0., 0., 0., 0., 0., 0.,
             0., 0., 0., 0., 0., 0., 0., 0., 0., 0., 0.,
             3.1205224664305135e-05, 0., 0., 0., 0., 0., 0., 0., 0., 0.,
             0., 0., 0., 0., 0., 0., 0., 0., 0., 0., 0., 0., 0., 0., 0.,
             0., 0., 0., 0., 0., 0., 0., 0., 0., 0., 0., 0., 0., 0., 0.,
             0., 0., 0., 0., 0., 0., 0., 0., 0., 0., 0., 0., 0., 0., 0.,
             0., 0., 0., 0., 0., 0., 0., 0., 0., 0., 0., 0., 0., 0., 0.,
             0., 0., 0., 0., 0., 0., 0., 0., 0., 0., 0., 0., 0., 0., 0.,
             0., 0., 0., 0., 0., 0., 0., 0., 0., 0., 0., 0., 0., 0., 0.,
             0., 0., 0., 0., 0., 0., 0., 0., 0., 0., 0., 0., 0., 0., 0.,
             0., 0., 0., 0., 0., 0., 0., 0., 0., 0., 0., 0., 0., 0., 0.,
             0., 0., 0., 0., 0., 0., 0., 0., 0., 0., 0., 0., 0., 0., 0.,
             0., 0., 0., 0., 0., 0., 0., 0., 0., 0., 0., 0., 0., 0., 0.,
             0., 0., 0., 0., 0., 0., 0., 0., 0., 0., 0., 0., 0., 0., 0.,
             0., 0., 0., 0., 0., 0., 0., 0., 0., 0., 0., 0., 0., 0., 0.,
             0., 0., 0., 0., 0., 0., 0., 0., 0., 0., 0., 0., 0., 0., 0.,
             0., 0., 0., 0., 0., 0., 0., 0., 0., 0., 0., 0., 0., 0., 0.,
             0., 0., 0., 0., 0., 0., 0., 0., 0., 0., 0., 0., 0., 0., 0.,
             0., 0., 0., 0., 0., 0., 0., 0., 0., 0., 0., 0., 0., 0., 0.,
             0., 0., 0., 0., 0., 0., 0., 0., 0., 0., 0., 0., 0., 0., 0.,
             0., 0., 0., 0., 0., 0., 0., 0., 0., 0., 0., 0., 0., 0., 0.,
             0., 0., 0., 0., 0., 0., 0., 0., 0., 0., 0., 0., 0., 0., 0.,
             0., 0., 0., 0., 0., 0., 0., 0., 0., 0., 0., 0., 0., 0., 0.,
             0., 0., 0., 0., 0., 0., 0., 0., 0., 0., 0., 0., 0., 0., 0.,
             0., 0., 0., 0., 0., 0., 0., 0., 0., 0., 0., 0., 0., 0., 0.,
             0., 0., 0., 0., 0., 0., 0., 0., 0., 0., 0., 0., 0., 0., 0.,
             0., 0., 0., 0., 0., 0., 0., 0., 0., 0., 0., 0., 0., 0., 0.,
             0., 0., 0., 0., 0., 0., 0., 0., 0., 0., 0., 0., 0., 0., 0.,
             0., 0., 0., 0., 0., 0., 0., 0., 0., 0., 0., 0., 0., 0., 0.,
             0., 0., 0., 0., 0., 0., 0., 0., 0., 0., 0., 0., 0., 0., 0.,
             0., 0., 0., 0., 0., 0., 0., 0., 0., 0., 0., 0., 0., 0., 0.,
             0., 0., 0., 0., 0., 0., 0., 0., 0., 0., 0., 0., 0., 0., 0.,
             0., 0., 0., 0., 0., 0., 0., 0., 0., 0., 0., 0., 0., 0., 0.,
             0., 0., 0., 0., 0., 0., 0., 0., 0., 0., 0., 0., 0., 0., 0.,
             0., 0., 0., 0., 0., 0., 0., 0., 0., 0., 0., 0., 0., 0., 0.,
             0., 0., 0., 0., 0., 0., 0., 0., 0., 0., 0.,
             1.5997669788303690e-05, 0., 0., 0., 0., 0., 0., 0., 0., 0.,
             0., 0., 0., 0., 0., 0., 0., 0., 0., 0., 0., 0., 0., 0., 0.,
             0., 0., 0., 0., 0., 0., 0., 0., 0., 0., 0., 0., 0., 0., 0.,
             0., 0., 0., 0., 0., 0., 0., 0., 0., 0., 0., 0., 0., 0., 0.,
             0., 0., 0., 0., 0., 0., 0., 0., 0., 0., 0., 0., 0., 0., 0.,
             0., 0., 0., 0., 0., 0., 0., 0., 0., 0., 0., 0., 0., 0., 0.,
             0., 0., 0., 0., 0., 0., 0., 0., 0., 0., 0., 0., 0., 0., 0.,
             0., 0., 0., 0., 0., 0., 0., 0., 0., 0., 0., 0., 0., 0., 0.,
             0., 0., 0., 0., 0., 0., 0., 0., 0., 0., 0., 0., 0., 0., 0.,
             0., 0., 0., 0., 0., 0., 0., 0., 0., 0., 0., 0., 0., 0., 0.,
             0., 0., 0., 0., 0., 0., 0., 0., 0., 0., 0., 0., 0., 0., 0.,
             0., 0., 0., 0., 0., 0., 0., 0., 0., 0., 0., 0., 0., 0., 0.,
             0., 0., 0., 0., 0., 0., 0., 0., 0., 0., 0., 0., 0., 0., 0.,
             0., 0., 0., 0., 0., 0., 0., 0., 0., 0., 0., 0., 0., 0., 0.,
             0., 0., 0., 0., 0., 0., 0., 0., 0., 0., 0., 0., 0., 0., 0.,
             0., 0., 0., 0., 0., 0., 0., 0., 0., 0., 0., 0., 0., 0., 0.,
             0., 0., 0., 0., 0., 0., 0., 0., 0., 0., 0., 0., 0., 0., 0.,
             0., 0., 0., 0., 0., 0., 0., 0., 0., 0., 0., 0., 0., 0., 0.,
             0., 0., 0., 0., 0., 0., 0., 0., 0., 0., 0., 0., 0., 0., 0.,
             0., 0., 0., 0., 0., 0., 0., 0., 0., 0., 0., 0., 0., 0., 0.,
             0., 0., 0., 0., 0., 0., 0., 0., 0., 0., 0., 0., 0., 0., 0.,
             0., 0., 0., 0., 0., 0., 0., 0., 0., 0., 0., 0., 0., 0., 0.,
             0., 0., 0., 0., 0., 0., 0., 0., 0., 0., 0., 0., 0., 0., 0.,
             0., 0., 0., 0., 0., 0., 0., 0., 0., 0., 0., 0., 0., 0., 0.,
             0., 0., 0., 0., 0., 0., 0., 0., 0., 0., 0., 0., 0., 0., 0.,
             0., 0., 0., 0., 0., 0., 0., 0., 0., 0., 0., 0., 0., 0., 0.,
             0., 0., 0., 0., 0., 0., 0., 0., 0., 0., 0., 0., 0., 0., 0.,
             0., 0., 0., 0., 0., 0., 0., 0., 0., 0., 0., 0., 0., 0., 0.,
             0., 0., 0., 0., 0., 0., 0., 0., 0., 0., 0., 0., 0., 0., 0.,
             0., 0., 0., 0., 0., 0., 0., 0., 0., 0., 0., 0., 0., 0., 0.,
             0., 0., 0., 0., 0., 0., 0., 0., 0., 0., 0., 0., 0., 0., 0.,
             0., 0., 0., 0., 0., 0., 0., 0., 0., 0., 0., 0., 0., 0., 0.,
             0., 0., 0., 0., 0., 0., 0., 0., 0., 0., 0., 0., 0., 0., 0.,
             0., 0., 0., 0., 0., 0., 0., 0., 0., 0., 0.,
             9.5428205861097071e-06, 0., 0., 0., 0., 0., 0., 0., 0., 0.,
             0., 0., 0., 0., 0., 0., 0., 0., 0., 0., 0., 0., 0., 0., 0.,
             0., 0., 0., 0., 0., 0., 0., 0., 0., 0., 0., 0., 0., 0., 0.,
             0., 0., 0., 0., 0., 0., 0., 0., 0., 0., 0., 0., 0., 0., 0.,
             0., 0., 0., 0., 0., 0., 0., 0., 0., 0., 0., 0., 0., 0., 0.,
             0., 0., 0., 0., 0., 0., 0., 0., 0., 0., 0., 0., 0., 0., 0.,
             0., 0., 0., 0., 0., 0., 0., 0., 0., 0., 0., 0., 0., 0., 0.,
             0., 0., 0., 0., 0., 0., 0., 0., 0., 0., 0., 0., 0., 0., 0.,
             0., 0., 0., 0., 0., 0., 0., 0., 0., 0., 0., 0., 0., 0., 0.,
             0., 0., 0., 0., 0., 0., 0., 0., 0., 0., 0., 0., 0., 0., 0.,
             0., 0., 0., 0., 0., 0., 0., 0., 0., 0., 0., 0., 0., 0., 0.,
             0., 0., 0., 0., 0., 0., 0., 0., 0., 0., 0., 0., 0., 0., 0.,
             0., 0., 0., 0., 0., 0., 0., 0., 0., 0., 0., 0., 0., 0., 0.,
             0., 0., 0., 0., 0., 0., 0., 0., 0., 0., 0., 0., 0., 0., 0.,
             0., 0., 0., 0., 0., 0., 0., 0., 0., 0., 0., 0., 0., 0., 0.,
             0., 0., 0., 0., 0., 0., 0., 0., 0., 0., 0., 0., 0., 0., 0.,
             0., 0., 0., 0., 0., 0., 0., 0., 0., 0., 0., 0., 0., 0., 0.,
             0., 0., 0., 0., 0., 0., 0., 0., 0., 0., 0., 0., 0., 0., 0.,
             0., 0., 0., 0., 0., 0., 0., 0., 0., 0., 0., 0., 0., 0., 0.,
             0., 0., 0., 0., 0., 0., 0., 0., 0., 0., 0., 0., 0., 0., 0.,
             0., 0., 0., 0., 0., 0., 0., 0., 0., 0., 0., 0., 0., 0., 0.,
             0., 0., 0., 0., 0., 0., 0., 0., 0., 0., 0., 0., 0., 0., 0.,
             0., 0., 0., 0., 0., 0., 0., 0., 0., 0., 0., 0., 0., 0., 0.,
             0., 0., 0., 0., 0., 0., 0., 0., 0., 0., 0., 0., 0., 0., 0.,
             0., 0., 0., 0., 0., 0., 0., 0., 0., 0., 0., 0., 0., 0., 0.,
             0., 0., 0., 0., 0., 0., 0., 0., 0., 0., 0., 0., 0., 0., 0.,
             0., 0., 0., 0., 0., 0., 0., 0., 0., 0., 0., 0., 0., 0., 0.,
             0., 0., 0., 0., 0., 0., 0., 0., 0., 0., 0., 0., 0., 0., 0.,
             0., 0., 0., 0., 0., 0., 0., 0., 0., 0., 0., 0., 0., 0., 0.,
             0., 0., 0., 0., 0., 0., 0., 0., 0., 0., 0., 0., 0., 0., 0.,
             0., 0., 0., 0., 0., 0., 0., 0., 0., 0., 0., 0., 0., 0., 0.,
             0., 0., 0., 0., 0., 0., 0., 0., 0., 0., 0., 0., 0., 0., 0.,
